{"learner":{"attributes":{"scikit_learn":"{\"n_estimators\": 100, \"objective\": \"reg:squarederror\", \"max_depth\": null, \"learning_rate\": null, \"verbosity\": null, \"booster\": null, \"tree_method\": \"hist\", \"gamma\": null, \"min_child_weight\": null, \"max_delta_step\": null, \"subsample\": null, \"colsample_bytree\": null, \"colsample_bylevel\": null, \"colsample_bynode\": null, \"reg_alpha\": null, \"reg_lambda\": null, \"scale_pos_weight\": null, \"base_score\": null, \"missing\": NaN, \"num_parallel_tree\": null, \"kwargs\": {}, \"random_state\": null, \"n_jobs\": null, \"monotone_constraints\": null, \"interaction_constraints\": null, \"importance_type\": \"gain\", \"gpu_id\": null, \"validate_parameters\": null, \"n_features_in_\": 8, \"type\": \"XGBRegressor\"}"},"gradient_booster":{"model":{"gbtree_model_param":{"num_trees":"100","size_leaf_vector":"0"},"tree_info":[0,0,0,0,0,0,0,0,0,0,0,0,0,0,0,0,0,0,0,0,0,0,0,0,0,0,0,0,0,0,0,0,0,0,0,0,0,0,0,0,0,0,0,0,0,0,0,0,0,0,0,0,0,0,0,0,0,0,0,0,0,0,0,0,0,0,0,0,0,0,0,0,0,0,0,0,0,0,0,0,0,0,0,0,0,0,0,0,0,0,0,0,0,0,0,0,0,0,0,0],"trees":[{"base_weights":[3.394055E-1,7.1481407E-1,1.9571929E-1,7.497233E-1,5.634157E-1,3.301753E-1,5.1093273E-2,3.9569348E-1,1.9911E-1,2.6408646E-1,2.6657263E-2,4.1478613E-1,3.0212507E-1,3.5421222E-1,1.3969237E-1,3.05651E-1,1.1354174E-1,7.773028E-2,-1.2061737E-2,4.0273932E-1,1.16353944E-1,4.3580335E-1,2.5165027E-1,1.9302031E-1,6.4997375E-2,3.131452E-1,8.537778E-2,1.2851536E-1,1.1849999E-2,3.6655854E-2,1.4402848E-1,3.5337877E-1,-2.3847917E-2,5.0229836E-1,3.1708136E-1,3.1782332E-1,1.6447976E-1,4.5314584E-2,1.1100039E-1,1.4257398E-1,2.9111117E-2,6.542984E-2,-2.8879048E-2,1.8218902E-1,9.0661466E-2,-2.7761974E-3,-9.5242105E-2],"categories":[],"categories_nodes":[],"categories_segments":[],"categories_sizes":[],"default_left":[false,false,false,false,false,false,false,false,false,false,false,false,false,false,false,false,false,false,false,false,false,false,false,false,false,false,false,false,false,false,false,false,false,false,false,false,false,false,false,false,false,false,false,false,false,false,false],"id":0,"left_children":[1,3,5,-1,-1,7,9,11,13,15,17,-1,19,21,23,25,27,29,31,33,-1,-1,-1,35,37,-1,-1,39,-1,41,43,-1,45,-1,-1,-1,-1,-1,-1,-1,-1,-1,-1,-1,-1,-1,-1],"loss_changes":[3.734912E1,5.923538E-1,9.783833E0,0E0,0E0,2.1624622E0,1.2629079E0,1.8374252E-1,7.7072597E-1,1.217289E-1,4.3598673E-1,0E0,5.6994987E-1,9.116554E-2,2.5035405E-1,4.629016E-3,9.135947E-3,2.5342077E-1,5.51128E-1,1.9819021E-2,0E0,0E0,0E0,8.30785E-2,2.1228641E-2,0E0,0E0,4.234433E-3,0E0,1.1503155E-1,5.6796968E-2,0E0,1.8477659E-1,0E0,0E0,0E0,1.16539E-2,6.931599E-3,6.6419095E-3,0E0,0E0,7.475002E-2,2.5852673E-2,8.542299E-3,4.9639195E-2,7.730926E-2,1.3447762E-2],"parents":[2147483647,0,0,1,1,2,2,5,5,6,6,7,7,8,8,9,9,10,10,12,12,13,13,14,14,15,15,16,16,17,17,18,18,19,19,23,23,24,24,27,27,29,29,30,30,32,32],"right_children":[2,4,6,-1,-1,8,10,12,14,16,18,-1,20,22,24,26,28,30,32,34,-1,-1,-1,36,38,-1,-1,40,-1,42,44,-1,46,-1,-1,-1,-1,-1,-1,-1,-1,-1,-1,-1,-1,-1,-1],"split_conditions":[6E0,2.7083333E0,1.3E1,2.2491701E-1,1.6902472E-1,1E2,5.0285716E-2,7.5E1,6.04E0,1.9014072E1,1.0057143E-1,1.2443584E-1,8.901795E-2,6.0342856E-2,1.188E-1,1.25E2,3.5E0,2.5E0,7.5E1,4.450897E-2,3.4906186E-2,1.3074102E-1,7.549509E-2,4.5792535E-2,2E0,9.394356E-2,2.5613336E-2,2.51E0,3.555E-3,1.9014072E1,3.5E0,1.0601363E-1,1.937E1,1.5068951E-1,9.5124416E-2,9.5347E-2,4.9343932E-2,1.3594376E-2,3.3300117E-2,4.2772196E-2,8.733336E-3,1.9628951E-2,-8.663715E-3,5.4656707E-2,2.7198441E-2,-8.3285925E-4,-2.8572632E-2],"split_indices":[2,2,2,0,0,0,3,0,2,2,3,0,3,3,3,0,4,1,0,3,0,0,0,3,1,0,0,1,0,2,4,0,2,0,0,0,0,0,0,0,0,0,0,0,0,0,0],"split_type":[0,0,0,0,0,0,0,0,0,0,0,0,0,0,0,0,0,0,0,0,0,0,0,0,0,0,0,0,0,0,0,0,0,0,0,0,0,0,0,0,0,0,0,0,0,0,0],"sum_hessian":[6.94E2,1.91E2,5.03E2,1.52E2,3.9E1,2.6E2,2.43E2,1.72E2,8.8E1,2.4E1,2.19E2,1.4E2,3.2E1,2.3E1,6.5E1,1.8E1,6E0,9.4E1,1.25E2,2E1,1.2E1,1.1E1,1.2E1,3.7E1,2.8E1,1.7E1,1E0,5E0,1E0,5.9E1,3.5E1,3E0,1.22E2,7E0,1.3E1,5E0,3.2E1,2.1E1,7E0,4E0,1E0,4.1E1,1.8E1,1.9E1,1.6E1,9.5E1,2.7E1],"tree_param":{"num_deleted":"0","num_feature":"8","num_nodes":"47","size_leaf_vector":"0"}},{"base_weights":[2.3980106E-1,4.7403714E-1,1.2591751E-1,5.1577383E-1,3.1189615E-1,2.900828E-1,5.517821E-2,6.4559025E-1,4.9150816E-1,3.4933248E-1,2.037516E-1,3.2034007E-1,2.644058E-1,2.1793458E-1,3.7515856E-2,4.435553E-1,5.3551763E-1,2.224302E-1,9.677787E-2,2.6055917E-1,9.810457E-2,8.711996E-2,-8.6313696E-4,5.657939E-1,4.2245454E-1,2.3503451E-1,4.1891366E-2,1.1603052E-1,1.7600497E-2,1.3344051E-1,5.7451475E-2,-3.7437573E-2,3.9334245E-2,4.340004E-1,1.0154149E-1,1.2553647E-1,2.4744451E-2,1.6098948E-1,8.7730534E-2,3.889488E-2,9.746246E-2,-2.835559E-3,-5.8776353E-2,7.722776E-2,-1.4373012E-3],"categories":[],"categories_nodes":[],"categories_segments":[],"categories_sizes":[],"default_left":[false,false,false,false,false,false,false,false,false,false,false,false,false,false,false,false,false,false,false,false,false,false,false,false,false,false,false,false,false,false,false,false,false,false,false,false,false,false,false,false,false,false,false,false,false],"id":1,"left_children":[1,3,5,7,9,11,13,-1,15,-1,17,-1,-1,19,21,-1,23,25,-1,-1,27,29,31,-1,33,-1,-1,35,-1,37,39,41,43,-1,-1,-1,-1,-1,-1,-1,-1,-1,-1,-1,-1],"loss_changes":[1.8479877E1,1.3752937E0,5.430462E0,2.4655151E-1,1.2720156E-1,2.4845123E-2,9.375874E-1,0E0,8.957672E-2,0E0,8.445501E-3,0E0,0E0,1.378845E-1,5.673944E-1,0E0,2.1133423E-2,1.7460883E-2,0E0,0E0,1.238893E-2,1.7098749E-1,2.4993579E-1,0E0,3.0035257E-2,0E0,0E0,3.8357526E-3,0E0,4.883939E-2,5.634907E-2,6.55478E-2,1.2525415E-1,0E0,0E0,0E0,0E0,2.9544652E-2,3.783287E-2,4.9640253E-2,3.3317208E-3,7.8458354E-2,1.5591621E-2,3.2416582E-2,2.1033831E-2],"parents":[2147483647,0,0,1,1,2,2,3,3,4,4,5,5,6,6,8,8,10,10,13,13,14,14,16,16,17,17,20,20,21,21,22,22,24,24,27,27,29,29,30,30,31,31,32,32],"right_children":[2,4,6,8,10,12,14,-1,16,-1,18,-1,-1,20,22,-1,24,26,-1,-1,28,30,32,-1,34,-1,-1,36,-1,38,40,42,44,-1,-1,-1,-1,-1,-1,-1,-1,-1,-1,-1,-1],"split_conditions":[6.04E0,4.642857E0,7.5E1,1.625E0,1.25E2,3.6545713E0,4.5792535E-2,1.9367708E-1,1.6689078E0,1.0479975E-1,3.500983E0,9.610202E-2,7.932174E-2,1.9E1,1.4E1,1.330666E-1,1E2,1.2068571E-1,2.9033363E-2,7.816775E-2,3.5E0,8.9833334E-2,2E0,1.6973817E-1,1.3475E-1,7.051036E-2,1.256741E-2,2.51E0,5.280149E-3,1.5E2,2.5E0,8.901795E-2,1.0057143E-1,1.3020013E-1,3.0462448E-2,3.766094E-2,7.4233357E-3,4.8296846E-2,2.6319161E-2,1.1668464E-2,2.923874E-2,-8.506677E-4,-1.7632907E-2,2.3168327E-2,-4.3119036E-4],"split_indices":[2,2,0,2,0,3,3,0,7,0,4,0,0,2,2,0,0,3,0,0,4,3,1,0,3,0,0,1,0,0,1,3,3,0,0,0,0,0,0,0,0,0,0,0,0],"split_type":[0,0,0,0,0,0,0,0,0,0,0,0,0,0,0,0,0,0,0,0,0,0,0,0,0,0,0,0,0,0,0,0,0,0,0,0,0,0,0,0,0,0,0,0,0],"sum_hessian":[6.94E2,2.26E2,4.68E2,1.78E2,4.8E1,1.4E2,3.28E2,2.4E1,1.54E2,3.4E1,1.4E1,5.9E1,8.1E1,3.1E1,2.97E2,7.9E1,7.5E1,1.1E1,3E0,2.2E1,9E0,1.29E2,1.68E2,5.6E1,1.9E1,1E1,1E0,7E0,2E0,4.9E1,8E1,8.8E1,8E1,1.8E1,1E0,6E0,1E0,2.9E1,2E1,5.6E1,2.4E1,3.4E1,5.4E1,4.1E1,3.9E1],"tree_param":{"num_deleted":"0","num_feature":"8","num_nodes":"45","size_leaf_vector":"0"}},{"base_weights":[1.6972806E-1,3.3567646E-1,8.904573E-2,3.6575648E-1,2.2469912E-1,2.0430212E-1,3.9379485E-2,2.9528263E-1,3.889641E-1,3.1585827E-1,1.9476132E-1,2.2583975E-1,1.8605138E-1,1.531299E-1,2.618052E-2,4.5352858E-1,3.6137325E-1,1.1888373E-1,3.464211E-1,2.2203226E-1,1.1894451E-1,1.7171657E-1,5.6907527E-2,6.2534556E-2,-1.8900232E-3,2.314388E-1,1.0538165E-1,2.1844982E-1,1.23013526E-1,7.031181E-2,-1.1759073E-2,8.8434465E-2,3.3119585E-2,-2.0092327E-2,4.026217E-2,8.494056E-2,1.5983012E-1,8.3096266E-2,2.9828588E-2,7.401129E-2,1.3446225E-1,2.2445792E-2,6.506775E-2,4.5689465E-3,-3.8932532E-2,8.15475E-2,1.0995909E-2],"categories":[],"categories_nodes":[],"categories_segments":[],"categories_sizes":[],"default_left":[false,false,false,false,false,false,false,false,false,false,false,false,false,false,false,false,false,false,false,false,false,false,false,false,false,false,false,false,false,false,false,false,false,false,false,false,false,false,false,false,false,false,false,false,false,false,false],"id":2,"left_children":[1,3,5,7,9,11,13,-1,15,17,19,-1,-1,21,23,-1,-1,-1,-1,25,-1,27,29,31,33,-1,-1,-1,35,37,-1,39,41,43,45,-1,-1,-1,-1,-1,-1,-1,-1,-1,-1,-1,-1],"loss_changes":[9.275536E0,6.755867E-1,2.676676E0,1.7463303E-1,7.7667475E-2,1.34058E-2,4.8994762E-1,0E0,6.768799E-2,2.503717E-2,5.8361888E-2,0E0,0E0,5.1035464E-2,3.0217952E-1,0E0,0E0,0E0,0E0,7.4317455E-3,0E0,3.685713E-2,7.2697867E-3,9.534913E-2,1.2970981E-1,0E0,0E0,0E0,8.851409E-3,6.2669255E-4,0E0,3.5191238E-2,1.9681998E-2,5.5003446E-2,6.0724936E-2,7.5260326E-3,0E0,0E0,0E0,2.8081298E-2,2.797854E-2,3.7064534E-2,4.3805987E-3,4.3553773E-2,2.5538608E-2,2.8101683E-2,3.025801E-2],"parents":[2147483647,0,0,1,1,2,2,3,3,4,4,5,5,6,6,8,8,9,9,10,10,13,13,14,14,19,19,21,21,22,22,23,23,24,24,28,28,29,29,31,31,32,32,33,33,34,34],"right_children":[2,4,6,8,10,12,14,-1,16,18,20,-1,-1,22,24,-1,-1,-1,-1,26,-1,28,30,32,34,-1,-1,-1,36,38,-1,40,42,44,46,-1,-1,-1,-1,-1,-1,-1,-1,-1,-1,-1,-1],"split_conditions":[6.04E0,4.3333335E0,7.5E1,1.633924E0,5.0285716E-2,3.6545713E0,5.0285716E-2,8.8584796E-2,1.76E0,2.15E0,3.5E0,6.775193E-2,5.5815417E-2,1.25E2,1.4E1,1.3605858E-1,1.08411975E-1,3.566512E-2,1.0392633E-1,3.1626096E0,3.5683356E-2,1.4E1,1.75E2,1.188E-1,2.5E0,6.943164E-2,3.1614497E-2,6.553495E-2,1.96E0,1.4444445E1,-3.5277219E-3,2.81E0,2.5E0,1.0086083E-1,2.551043E0,2.5482168E-2,4.794904E-2,2.492888E-2,8.948577E-3,2.2203388E-2,4.0338676E-2,6.733738E-3,1.9520327E-2,1.370684E-3,-1.167976E-2,2.4464251E-2,3.2987727E-3],"split_indices":[2,2,0,7,3,3,3,0,2,4,4,0,0,0,2,0,0,0,0,3,0,2,0,3,1,0,0,0,1,2,0,1,1,3,5,0,0,0,0,0,0,0,0,0,0,0,0],"split_type":[0,0,0,0,0,0,0,0,0,0,0,0,0,0,0,0,0,0,0,0,0,0,0,0,0,0,0,0,0,0,0,0,0,0,0,0,0,0,0,0,0,0,0,0,0,0,0],"sum_hessian":[6.94E2,2.26E2,4.68E2,1.76E2,5E1,1.4E2,3.28E2,4.7E1,1.29E2,1E1,4E1,5.9E1,8.1E1,3.3E1,2.95E2,3.4E1,9.5E1,2E0,8E0,2.8E1,1.2E1,2.7E1,6E0,1.28E2,1.67E2,2.5E1,3E0,1.2E1,1.5E1,5E0,1E0,6.7E1,6.1E1,1.17E2,5E1,9E0,6E0,3E0,2E0,5.3E1,1.4E1,4.7E1,1.4E1,5.1E1,6.6E1,2E1,3E1],"tree_param":{"num_deleted":"0","num_feature":"8","num_nodes":"47","size_leaf_vector":"0"}},{"base_weights":[1.2026074E-1,2.37658E-1,6.318305E-2,2.6907125E-1,1.7991604E-1,1.4388785E-1,2.8403232E-2,3.1062108E-1,2.4322379E-1,1.9044966E-1,7.214523E-2,1.5921701E-1,1.3091666E-1,1.12170815E-1,1.8685324E-2,2.7204326E-1,2.0993756E-1,2.2720844E-1,1.6982158E-1,4.163183E-2,9.987903E-2,1.6326353E-1,8.205261E-2,1.4709039E-1,8.037259E-2,3.5178933E-2,-1.4490638E-2,1.916823E-1,3.0577728E-1,1.754629E-1,1.9192258E-2,6.6691816E-2,2.3281466E-2,1.561836E-1,5.8656394E-2,1.3215064E-1,5.4303203E-2,6.0868945E-2,1.7973186E-2,1.040806E-2,-4.1162338E-2,2.033173E-1,1.15364484E-1,1.7971195E-1,8.167079E-2,4.060924E-3,2.4727464E-2,3.5798192E-2,1.4426148E-1,5.960989E-2,-9.995222E-3,8.104973E-2,2.7006766E-2,2.7662301E-2,-1.2016235E-2,-1.7778942E-2,3.3376336E-2,-2.7381442E-2,-5.0866686E-2],"categories":[],"categories_nodes":[],"categories_segments":[],"categories_sizes":[],"default_left":[false,false,false,false,false,false,false,false,false,false,false,false,false,false,false,false,false,false,false,false,false,false,false,false,false,false,false,false,false,false,false,false,false,false,false,false,false,false,false,false,false,false,false,false,false,false,false,false,false,false,false,false,false,false,false,false,false,false,false],"id":3,"left_children":[1,3,5,7,9,11,13,-1,15,17,19,21,-1,23,25,-1,27,-1,29,31,-1,-1,-1,33,35,37,39,41,-1,43,45,-1,-1,-1,-1,47,49,51,53,55,57,-1,-1,-1,-1,-1,-1,-1,-1,-1,-1,-1,-1,-1,-1,-1,-1,-1,-1],"loss_changes":[4.6420145E0,3.6333752E-1,1.3123485E0,8.017254E-2,8.048296E-2,7.1918964E-3,2.6572508E-1,0E0,3.3061504E-2,1.8284798E-2,3.4581274E-3,5.338669E-3,0E0,2.5930911E-2,1.6247842E-1,0E0,2.5367737E-2,0E0,4.0819526E-2,1.2064762E-3,0E0,0E0,0E0,2.9010475E-3,1.9820243E-2,8.6425126E-2,6.617339E-2,1.472652E-2,0E0,5.2491426E-3,1.5084876E-4,0E0,0E0,0E0,0E0,1.8371567E-3,5.713988E-3,5.1796973E-2,3.520091E-2,3.4258552E-2,5.0264597E-3,0E0,8.818388E-3,4.5027733E-3,0E0,0E0,0E0,0E0,0E0,3.2879636E-3,0E0,3.504488E-2,4.0911682E-2,2.6126876E-2,4.6817265E-2,5.2296676E-2,3.6484055E-2,2.6403293E-3,5.562283E-3],"parents":[2147483647,0,0,1,1,2,2,3,3,4,4,5,5,6,6,8,8,9,9,10,10,11,11,13,13,14,14,16,16,18,18,19,19,23,23,24,24,25,25,26,26,27,27,29,29,30,30,35,35,36,36,37,37,38,38,39,39,40,40],"right_children":[2,4,6,8,10,12,14,-1,16,18,20,22,-1,24,26,-1,28,-1,30,32,-1,-1,-1,34,36,38,40,42,-1,44,46,-1,-1,-1,-1,48,50,52,54,56,58,-1,-1,-1,-1,-1,-1,-1,-1,-1,-1,-1,-1,-1,-1,-1,-1,-1,-1],"split_conditions":[6.04E0,2.5E0,7.5E1,4.450897E-2,1.5E2,3.6545713E0,5.0285716E-2,9.318633E-2,1.875E0,7.6721646E-2,1.75E2,6E1,3.9274998E-2,1E2,1.9E1,8.161298E-2,2.02E0,6.816253E-2,3.500983E0,1.1338466E0,2.996371E-2,4.8979063E-2,2.4615785E-2,1.9014072E1,1.007E1,1.0057143E-1,1.026019E-1,4.01E0,9.173319E-2,3.1626096E0,1.25E2,2.0007545E-2,6.98444E-3,4.685508E-2,1.759692E-2,2.6712313E-2,1.75E2,1.5E2,5.96E0,2E0,1.9014072E1,6.099519E-2,3.4609348E-2,5.391359E-2,2.4501238E-2,1.2182773E-3,7.4182395E-3,1.0739458E-2,4.3278445E-2,1.7882967E-2,-2.9985667E-3,2.4314921E-2,8.1020305E-3,8.29869E-3,-3.6048705E-3,-5.333683E-3,1.0012901E-2,-8.214433E-3,-1.5260006E-2],"split_indices":[2,2,0,3,0,3,3,0,2,3,0,0,0,0,2,0,1,0,4,1,0,0,0,2,2,3,3,6,0,3,0,0,0,0,0,3,0,0,6,1,2,0,0,0,0,0,0,0,0,0,0,0,0,0,0,0,0,0,0],"split_type":[0,0,0,0,0,0,0,0,0,0,0,0,0,0,0,0,0,0,0,0,0,0,0,0,0,0,0,0,0,0,0,0,0,0,0,0,0,0,0,0,0,0,0,0,0,0,0,0,0,0,0,0,0,0,0,0,0,0,0],"sum_hessian":[6.94E2,2.26E2,4.68E2,1.44E2,8.2E1,1.4E2,3.28E2,5.1E1,9.3E1,7.4E1,8E0,5.9E1,8.1E1,3.3E1,2.95E2,4.6E1,4.7E1,2.3E1,5.1E1,5E0,3E0,5.5E1,4E0,1.4E1,1.9E1,1.97E2,9.8E1,4.2E1,5E0,4.9E1,2E0,1E0,4E0,1.2E1,2E0,5E0,1.4E1,7.8E1,1.19E2,5.1E1,4.7E1,3.5E1,7E0,4.6E1,3E0,1E0,1E0,1E0,4E0,1.3E1,1E0,4.8E1,3E1,9E1,2.9E1,2.3E1,2.8E1,2.1E1,2.6E1],"tree_param":{"num_deleted":"0","num_feature":"8","num_nodes":"59","size_leaf_vector":"0"}},{"base_weights":[8.538949E-2,1.6889057E-1,4.4792183E-2,2.0081303E-1,1.3875294E-1,1.01522E-1,2.0343259E-2,2.601802E-1,1.8521576E-1,1.8397555E-1,1.22319624E-1,1.126785E-1,9.212063E-2,5.7183336E-2,8.080236E-3,1.9162524E-1,9.636663E-2,1.9241732E-1,4.3860454E-2,1.3616161E-1,5.8618147E-2,9.006335E-2,1.2965228E-1,7.635627E-2,9.807629E-2,7.2364144E-2,-9.960258E-3,3.8664624E-2,-3.2232495E-3,1.1569303E-1,2.5591612E-2,2.0028691E-1,6.0075104E-2,1.4270738E-1,9.0449505E-2,3.2206256E-2,9.552165E-2,1.0387457E-1,6.815973E-2,8.8482276E-2,1.545747E-2,4.886203E-2,-4.1139666E-2,4.8365436E-2,1.1611755E-2,-2.081808E-2,1.6228784E-2,1.2542659E-1,1.7612465E-1,2.6148468E-2,9.3917914E-2,-3.159286E-2,5.698295E-2,1.1543443E-1,3.049314E-2,1.164594E-1,5.098982E-2,-1.6760418E-2,8.968891E-2,5.475496E-2,9.698689E-3,9.421378E-3,-6.127773E-2,6.33711E-2,2.864725E-2,5.335321E-2,3.5625715E-3,2.4920683E-2,-3.1692676E-2,2.3921225E-3,5.9601527E-2],"categories":[],"categories_nodes":[],"categories_segments":[],"categories_sizes":[],"default_left":[false,false,false,false,false,false,false,false,false,false,false,false,false,false,false,false,false,false,false,false,false,false,false,false,false,false,false,false,false,false,false,false,false,false,false,false,false,false,false,false,false,false,false,false,false,false,false,false,false,false,false,false,false,false,false,false,false,false,false,false,false,false,false,false,false,false,false,false,false,false,false],"id":4,"left_children":[1,3,5,7,9,11,13,-1,15,17,19,21,23,25,27,-1,29,31,-1,33,35,-1,-1,-1,37,39,41,43,45,-1,-1,-1,-1,47,49,51,53,-1,-1,55,57,59,61,63,65,67,69,-1,-1,-1,-1,-1,-1,-1,-1,-1,-1,-1,-1,-1,-1,-1,-1,-1,-1,-1,-1,-1,-1,-1,-1],"loss_changes":[2.3484282E0,1.9052601E-1,6.4842975E-1,5.1815033E-2,6.6675186E-2,4.4089556E-3,1.4817052E-1,0E0,3.2217026E-2,2.7045012E-2,7.2258234E-2,1.1354923E-2,2.0998716E-4,8.430287E-2,8.5860744E-2,0E0,7.981837E-3,1.7129183E-2,0E0,9.234548E-3,1.44680515E-2,0E0,0E0,0E0,2.6339889E-3,6.0086608E-2,3.135487E-2,1.702153E-2,6.262831E-2,0E0,0E0,0E0,0E0,1.4290333E-2,2.2046268E-4,2.0769028E-2,5.5443347E-3,0E0,0E0,4.8606187E-2,3.976851E-2,8.536689E-4,1.1777537E-2,1.268293E-2,6.193633E-3,4.8539292E-2,5.2069083E-2,0E0,4.561901E-3,0E0,0E0,3.6687232E-3,3.662197E-3,9.225041E-3,6.2502455E-4,3.0781716E-2,7.286586E-2,1.1807206E-2,0E0,1.2472188E-3,0E0,1.5112683E-3,3.729254E-3,4.423745E-3,1.1104355E-2,0E0,2.6382853E-3,1.1589584E-2,2.3297079E-2,4.074958E-2,3.009066E-4],"parents":[2147483647,0,0,1,1,2,2,3,3,4,4,5,5,6,6,8,8,9,9,10,10,11,11,12,12,13,13,14,14,16,16,17,17,19,19,20,20,24,24,25,25,26,26,27,27,28,28,33,33,34,34,35,35,36,36,39,39,40,40,41,41,42,42,43,43,44,44,45,45,46,46],"right_children":[2,4,6,8,10,12,14,-1,16,18,20,22,24,26,28,-1,30,32,-1,34,36,-1,-1,-1,38,40,42,44,46,-1,-1,-1,-1,48,50,52,54,-1,-1,56,58,60,62,64,66,68,70,-1,-1,-1,-1,-1,-1,-1,-1,-1,-1,-1,-1,-1,-1,-1,-1,-1,-1,-1,-1,-1,-1,-1,-1],"split_conditions":[6.04E0,2.0204082E0,7.5E1,1.5151515E0,5.0285716E-2,3.6545713E0,6.0342856E-2,7.805406E-2,1.5E2,4E0,1E2,2.5300877E0,9E0,1.9014072E1,1.007E1,5.7487573E-2,6.9584765E-2,1.25E2,1.3158137E-2,2.016461E0,2.02E0,2.7019005E-2,3.8895685E-2,2.290688E-2,1.2531844E1,1.5E2,3.0009642E0,2.052038E-1,2E0,3.470791E-2,7.677484E-3,6.0086075E-2,1.8022532E-2,1.6689078E0,2.109232E0,1.25E2,3.5E0,3.1162372E-2,2.044792E-2,4.01E0,2.51E0,5.130095E-2,4.481772E-2,3.5E0,2.001856E0,1E2,1.75E2,3.762798E-2,5.2837398E-2,7.844541E-3,2.8175374E-2,-9.477858E-3,1.7094886E-2,3.4630332E-2,9.147942E-3,3.493782E-2,1.5296947E-2,-5.028126E-3,2.6906675E-2,1.6426489E-2,2.9096068E-3,2.8264136E-3,-1.8383319E-2,1.901133E-2,8.594175E-3,1.6005963E-2,1.0687715E-3,7.4762055E-3,-9.507803E-3,7.176368E-4,1.7880458E-2],"split_indices":[2,2,0,2,3,3,3,0,0,5,0,3,2,2,2,0,3,0,0,3,1,0,0,0,3,0,5,3,1,0,0,0,0,7,3,0,4,0,0,6,1,3,3,4,6,0,0,0,0,0,0,0,0,0,0,0,0,0,0,0,0,0,0,0,0,0,0,0,0,0,0],"split_type":[0,0,0,0,0,0,0,0,0,0,0,0,0,0,0,0,0,0,0,0,0,0,0,0,0,0,0,0,0,0,0,0,0,0,0,0,0,0,0,0,0,0,0,0,0,0,0,0,0,0,0,0,0,0,0,0,0,0,0,0,0,0,0,0,0,0,0,0,0,0,0],"sum_hessian":[6.94E2,2.26E2,4.68E2,1.07E2,1.19E2,1.4E2,3.28E2,1.9E1,8.8E1,2.9E1,9E1,5.9E1,8.1E1,8.1E1,2.47E2,8.1E1,7E0,2.7E1,2E0,7.3E1,1.7E1,2.8E1,3.1E1,2.6E1,5.5E1,6.6E1,1.5E1,6.6E1,1.81E2,5E0,2E0,2.5E1,2E0,6.2E1,1.1E1,1.1E1,6E0,4.4E1,1.1E1,5.1E1,1.5E1,5E0,1E1,4.8E1,1.8E1,9.5E1,8.6E1,4.4E1,1.8E1,1E0,1E1,3E0,8E0,4E0,2E0,2.8E1,2.3E1,1.1E1,4E0,4E0,1E0,3E0,7E0,2.6E1,2.2E1,2E0,1.6E1,1.8E1,7.7E1,6.6E1,2E1],"tree_param":{"num_deleted":"0","num_feature":"8","num_nodes":"71","size_leaf_vector":"0"}},{"base_weights":[6.081529E-2,1.2019287E-1,3.1946365E-2,1.5480839E-1,1.05348326E-1,7.206137E-2,1.465712E-2,1.5973812E-1,6.2718116E-2,1.16406985E-1,6.484185E-2,7.997353E-2,6.539318E-2,3.337404E-3,3.9114803E-2,1.0453589E-1,1.4114699E-1,8.045825E-2,4.388798E-2,6.657825E-2,9.7292356E-2,4.0064484E-2,6.7223E-2,1.7791923E-2,-2.3264492E-2,7.544811E-2,2.4059946E-2,1.15715854E-1,8.398065E-2,1.8428761E-1,1.08302966E-1,4.427731E-2,8.9566745E-2,-9.634256E-4,5.6771483E-2,5.2167702E-2,9.622643E-3,-2.9340897E-2,2.7931686E-2,5.338244E-3,9.65538E-2,-2.415466E-2,4.3257378E-2,2.1759808E-2,8.517068E-2,1.9637907E-1,7.046211E-2,1.3172638E-1,3.2599475E-2,9.5264874E-2,3.501926E-2,-3.0299291E-2,5.8190018E-2,1.06357425E-1,3.3579186E-2,8.975162E-2,2.2569187E-2,5.806815E-2,4.200911E-3,-2.734336E-3,-4.0242925E-2,3.4370303E-2,-1.0067493E-2,1.06360115E-1,-4.275004E-3,-5.4026697E-2,-9.575976E-3,6.589709E-2,2.563329E-2],"categories":[],"categories_nodes":[],"categories_segments":[],"categories_sizes":[],"default_left":[false,false,false,false,false,false,false,false,false,false,false,false,false,false,false,false,false,false,false,false,false,false,false,false,false,false,false,false,false,false,false,false,false,false,false,false,false,false,false,false,false,false,false,false,false,false,false,false,false,false,false,false,false,false,false,false,false,false,false,false,false,false,false,false,false,false,false,false,false],"id":5,"left_children":[1,3,5,7,9,11,13,-1,-1,15,17,19,21,23,25,27,29,31,33,-1,-1,-1,-1,35,37,39,41,-1,43,45,47,-1,49,51,53,55,57,59,-1,61,63,65,67,-1,-1,-1,-1,-1,-1,-1,-1,-1,-1,-1,-1,-1,-1,-1,-1,-1,-1,-1,-1,-1,-1,-1,-1,-1,-1],"loss_changes":[1.1875064E0,1.003356E-1,3.2422253E-1,1.9944191E-2,6.501949E-2,2.2093654E-3,9.095443E-2,0E0,0E0,2.2250056E-2,8.57614E-3,7.4418783E-3,1.1072159E-3,8.731491E-2,5.5071965E-2,1.0734975E-2,3.388375E-2,2.6253015E-3,1.0455873E-2,0E0,0E0,0E0,0E0,4.077934E-2,2.5706634E-2,4.387608E-2,7.046462E-2,0E0,7.3827803E-4,6.8074465E-3,3.826341E-2,0E0,1.3261735E-3,1.0439704E-2,1.252877E-2,2.9122368E-2,3.1275082E-2,2.0774681E-2,0E0,3.924105E-3,2.3196146E-2,9.063532E-3,1.9857071E-2,0E0,0E0,0E0,0E0,1.168713E-2,1.0154536E-4,1.0236651E-3,0E0,2.8745094E-3,0E0,0E0,3.1563733E-3,1.5427507E-2,1.24872895E-2,2.5206268E-2,2.1778436E-2,2.5007487E-3,5.5420026E-3,0E0,1.276402E-3,2.3474991E-3,1.5056172E-5,2.8199535E-3,4.2399187E-3,5.8226436E-3,1.0104254E-2],"parents":[2147483647,0,0,1,1,2,2,3,3,4,4,5,5,6,6,9,9,10,10,11,11,12,12,13,13,14,14,15,15,16,16,17,17,18,18,23,23,24,24,25,25,26,26,28,28,29,29,30,30,32,32,33,33,34,34,35,35,36,36,37,37,39,39,40,40,41,41,42,42],"right_children":[2,4,6,8,10,12,14,-1,-1,16,18,20,22,24,26,28,30,32,34,-1,-1,-1,-1,36,38,40,42,-1,44,46,48,-1,50,52,54,56,58,60,-1,62,64,66,68,-1,-1,-1,-1,-1,-1,-1,-1,-1,-1,-1,-1,-1,-1,-1,-1,-1,-1,-1,-1,-1,-1,-1,-1,-1,-1],"split_conditions":[6.04E0,5.0285716E-2,7.5E1,1.25E2,4.7272725E0,3.6545713E0,2.5E0,4.7921438E-2,1.8815435E-2,1.6689078E0,1E2,9.687016E-1,7.4712644E0,4.03E0,6.0342856E-2,2.12E0,1.8728961E0,9.687016E-1,2.94E0,1.9973475E-2,2.9187707E-2,1.2019346E-2,2.01669E-2,5.476828E-2,3.58E0,2.5E0,4E0,3.471476E-2,2.7875772E-1,3.6363637E0,1.0057143E-1,1.3283194E-2,3.1626096E0,3.0009642E0,3.5E0,1.4E1,2.01E0,1.007E1,8.379506E-3,1.007E1,1.9014072E1,9.158507E-2,3.5E0,6.5279426E-3,2.5551206E-2,5.8913723E-2,2.1138633E-2,3.9517917E-2,9.779843E-3,2.8579464E-2,1.0505779E-2,-9.0897875E-3,1.7457006E-2,3.190723E-2,1.0073756E-2,2.6925487E-2,6.7707566E-3,1.7420445E-2,1.2602734E-3,-8.2030083E-4,-1.2072878E-2,1.0311091E-2,-3.020248E-3,3.1908035E-2,-1.2825013E-3,-1.620801E-2,-2.872793E-3,1.9769128E-2,7.6899873E-3],"split_indices":[2,3,0,0,2,3,1,0,0,7,0,7,2,6,3,2,7,7,4,0,0,0,0,3,4,4,6,0,3,2,3,0,3,5,4,2,5,2,0,2,2,3,4,0,0,0,0,0,0,0,0,0,0,0,0,0,0,0,0,0,0,0,0,0,0,0,0,0,0],"split_type":[0,0,0,0,0,0,0,0,0,0,0,0,0,0,0,0,0,0,0,0,0,0,0,0,0,0,0,0,0,0,0,0,0,0,0,0,0,0,0,0,0,0,0,0,0,0,0,0,0,0,0,0,0,0,0,0,0,0,0,0,0,0,0,0,0,0,0,0,0],"sum_hessian":[6.94E2,2.26E2,4.68E2,6.5E1,1.61E2,1.4E2,3.28E2,6.1E1,4E0,1.25E2,3.6E1,5.9E1,8.1E1,2.25E2,1.03E2,8.8E1,3.7E1,1.9E1,1.7E1,3.6E1,2.3E1,7E0,7.4E1,1.46E2,7.9E1,2.9E1,7.4E1,5.4E1,3.4E1,1.4E1,2.3E1,5E0,1.4E1,4E0,1.3E1,2.7E1,1.19E2,7.1E1,8E0,7E0,2.2E1,2.1E1,5.3E1,1E0,3.3E1,1.2E1,2E0,1.7E1,6E0,1.2E1,2E0,3E0,1E0,3E0,1E1,1.1E1,1.6E1,1.1E1,1.08E2,2.1E1,5E1,2E0,5E0,2E1,2E0,6E0,1.5E1,2.2E1,3.1E1],"tree_param":{"num_deleted":"0","num_feature":"8","num_nodes":"69","size_leaf_vector":"0"}},{"base_weights":[4.3349274E-2,8.329278E-2,2.1279348E-2,1.4402662E-1,7.759993E-2,4.148831E-2,4.1304757E-3,1.6770397E-1,7.6096706E-2,8.974058E-2,6.445024E-2,4.880482E-2,2.4492227E-2,7.282609E-2,2.0926613E-3,8.147135E-2,2.1924436E-2,8.338728E-2,1.6508675E-1,6.872474E-2,3.6269255E-2,3.5934433E-2,5.2799206E-2,1.5799634E-2,6.493838E-2,9.0835296E-2,1.8535376E-2,8.205528E-3,-1.6592233E-2,8.998725E-2,4.2376433E-2,7.055529E-2,8.525506E-3,2.2879224E-2,6.382948E-2,3.9756767E-2,2.1638453E-2,5.4982927E-2,3.0929511E-2,-7.4908384E-3,2.5803277E-2,8.535045E-2,2.3373818E-2,2.4211854E-2,3.5912097E-3,8.655778E-2,6.838886E-3,-4.1238684E-2,-2.895625E-3,8.486993E-2,1.5004338E-1,-2.239576E-2,5.7855885E-2,1.0267595E-1,6.315674E-2,1.08221965E-2,8.177161E-4,3.1410724E-2,7.690688E-3,8.271158E-3,4.061656E-2,-2.2045024E-2,4.901594E-3,3.9347656E-2,6.757417E-3,1.1503434E-1,5.0470017E-2,4.9384534E-3,2.6748046E-2,1.5930155E-2,-5.8588595E-3,-4.5507908E-2,-4.5403838E-4,3.8352346E-3,-4.0554557E-2],"categories":[],"categories_nodes":[],"categories_segments":[],"categories_sizes":[],"default_left":[false,false,false,false,false,false,false,false,false,false,false,false,false,false,false,false,false,false,false,false,false,false,false,false,false,false,false,false,false,false,false,false,false,false,false,false,false,false,false,false,false,false,false,false,false,false,false,false,false,false,false,false,false,false,false,false,false,false,false,false,false,false,false,false,false,false,false,false,false,false,false,false,false,false,false],"id":6,"left_children":[1,3,5,7,9,11,13,-1,15,17,19,21,23,25,27,-1,-1,29,-1,31,33,35,37,39,41,-1,43,45,47,49,51,53,55,57,-1,59,-1,-1,-1,61,63,65,67,-1,-1,-1,69,71,73,-1,-1,-1,-1,-1,-1,-1,-1,-1,-1,-1,-1,-1,-1,-1,-1,-1,-1,-1,-1,-1,-1,-1,-1,-1,-1],"loss_changes":[6.1090493E-1,7.422352E-2,1.5543447E-1,1.9406319E-2,3.0615449E-2,2.4421185E-2,3.400489E-2,0E0,2.518855E-4,4.176271E-2,1.1119336E-2,5.4542124E-3,2.1475237E-2,5.160462E-3,2.7320094E-2,0E0,0E0,2.5689721E-2,0E0,1.0087699E-2,4.8131794E-3,1.1615567E-3,3.4094155E-3,1.27747245E-2,7.337641E-3,0E0,1.6754074E-4,1.8682353E-2,1.9797381E-2,1.5847206E-2,1.8340576E-2,1.585412E-2,6.196016E-5,1.4429833E-3,0E0,4.220456E-4,0E0,0E0,0E0,3.1742058E-3,9.536756E-3,1.4419183E-3,1.7893151E-4,0E0,0E0,0E0,2.0641409E-2,3.6358312E-3,1.0041139E-2,4.516244E-3,0E0,2.4224874E-3,5.5183843E-3,1.739873E-2,1.0305613E-2,0E0,0E0,1.3272362E-3,1.5386882E-3,0E0,0E0,1.4925234E-3,5.251799E-4,6.81103E-3,6.4434065E-3,0E0,0E0,0E0,2.4679466E-4,1.8111935E-2,4.121986E-3,2.7037188E-3,2.5934348E-4,1.4516981E-2,2.3327488E-4],"parents":[2147483647,0,0,1,1,2,2,3,3,4,4,5,5,6,6,8,8,9,9,10,10,11,11,12,12,13,13,14,14,17,17,19,19,20,20,21,21,22,22,23,23,24,24,26,26,27,27,28,28,29,29,30,30,31,31,32,32,33,33,35,35,39,39,40,40,41,41,42,42,46,46,47,47,48,48],"right_children":[2,4,6,8,10,12,14,-1,16,18,20,22,24,26,28,-1,-1,30,-1,32,34,36,38,40,42,-1,44,46,48,50,52,54,56,58,-1,60,-1,-1,-1,62,64,66,68,-1,-1,-1,70,72,74,-1,-1,-1,-1,-1,-1,-1,-1,-1,-1,-1,-1,-1,-1,-1,-1,-1,-1,-1,-1,-1,-1,-1,-1,-1,-1],"split_conditions":[7.6923075E0,1.5151515E0,1.3E1,6.358669E-1,2.2916667E0,1E2,4.125E-2,5.0311193E-2,3E1,2.02E0,1.25E2,9E0,2.81E0,1.9E1,1.9014072E1,2.4441404E-2,6.577331E-3,1E2,4.9526025E-2,4E0,3.0009642E0,8.724833E0,1.2531844E1,8.125E0,8.9833334E-2,2.725059E-2,1E2,6E1,2.2E1,3E1,2.01E0,5.0285716E-2,1E2,4.01E0,1.9148845E-2,5.826413E-2,6.4915363E-3,1.649488E-2,9.278853E-3,4.01E0,4.01E0,2.551043E0,2.01E0,7.2635566E-3,1.0773629E-3,2.5967335E-2,1.188E-1,2.9981184E0,1.6333333E-1,2.5460979E-2,4.5013018E-2,-6.718728E-3,1.7356766E-2,3.0802786E-2,1.8947022E-2,3.2466592E-3,2.4531485E-4,9.423218E-3,2.3072066E-3,2.4813474E-3,1.2184969E-2,-6.6135074E-3,1.4704783E-3,1.1804298E-2,2.0272252E-3,3.4510303E-2,1.5141006E-2,1.4815361E-3,8.024414E-3,4.779047E-3,-1.757658E-3,-1.3652373E-2,-1.3621151E-4,1.1505705E-3,-1.2166368E-2],"split_indices":[2,2,2,3,2,0,3,0,0,1,0,2,1,2,2,0,0,0,0,5,5,2,3,2,3,0,0,0,2,0,5,3,0,6,0,3,0,0,0,6,6,5,5,0,0,0,3,1,3,0,0,0,0,0,0,0,0,0,0,0,0,0,0,0,0,0,0,0,0,0,0,0,0,0,0],"split_type":[0,0,0,0,0,0,0,0,0,0,0,0,0,0,0,0,0,0,0,0,0,0,0,0,0,0,0,0,0,0,0,0,0,0,0,0,0,0,0,0,0,0,0,0,0,0,0,0,0,0,0,0,0,0,0,0,0,0,0,0,0,0,0,0,0,0,0,0,0,0,0,0,0,0,0],"sum_hessian":[6.94E2,2.46E2,4.48E2,1.9E1,2.27E2,2.05E2,2.43E2,1.3E1,6E0,1.15E2,1.12E2,1.42E2,6.3E1,6E0,2.37E2,5E0,1E0,1.08E2,7E0,9.6E1,1.6E1,3.6E1,1.06E2,5.3E1,1E1,4E0,2E0,1.79E2,5.8E1,9.2E1,1.6E1,9.3E1,3E0,1.2E1,4E0,2.7E1,9E0,9.5E1,1.1E1,1.6E1,3.7E1,6E0,4E0,1E0,1E0,2E0,1.77E2,2E1,3.8E1,8.7E1,5E0,3E0,1.3E1,1.5E1,7.8E1,2E0,1E0,7E0,5E0,1E0,2.6E1,7E0,9E0,2.1E1,1.6E1,2E0,4E0,1E0,3E0,1.03E2,7.4E1,1.8E1,2E0,3.3E1,5E0],"tree_param":{"num_deleted":"0","num_feature":"8","num_nodes":"75","size_leaf_vector":"0"}},{"base_weights":[3.0992907E-2,6.014224E-2,1.5485252E-2,1.18777886E-1,5.6278024E-2,3.0346835E-2,2.5092654E-3,1.3962239E-1,5.3333305E-2,5.273353E-2,9.050408E-2,3.410724E-2,4.4174716E-3,-6.2201694E-3,2.2262527E-2,5.844432E-2,2.1620804E-2,-3.605634E-3,9.564699E-2,7.442222E-2,3.2340135E-2,2.4213966E-2,-2.028725E-2,3.298683E-3,-1.9539395E-2,2.5531014E-3,4.039038E-2,4.808515E-2,7.273972E-2,-2.8268635E-2,3.560209E-2,1.2087849E-1,5.4181054E-2,3.621924E-2,1.7954772E-2,1.0493483E-2,3.6622763E-2,-1.1675563E-2,-3.1730838E-2,-1.7244803E-2,1.2349389E-2,-2.454245E-2,1.7653035E-2,3.370972E-2,-2.0222308E-2,6.149395E-2,3.200951E-2,4.9965244E-2,8.736025E-3,9.301256E-2,5.320085E-2,-4.068022E-2,5.977412E-3,5.179086E-2,7.346533E-3,1.2762038E-1,2.6729792E-2,8.5177004E-2,2.4486909E-2,7.597371E-2,3.4184083E-2,2.6286067E-2,6.047913E-4,3.6523383E-2,-2.1612558E-3,-2.2047592E-2,1.6417691E-2,-3.1074965E-2,4.2950353E-3,4.5422442E-2,2.751614E-5,-1.9697279E-2,-5.5390853E-2,1.0713507E-2,2.3649067E-2,5.394351E-2,-2.1593321E-2,1.1642611E-2,-2.7950212E-2,3.3417843E-2,7.464171E-2,4.9378827E-2,1.7686699E-2],"categories":[],"categories_nodes":[],"categories_segments":[],"categories_sizes":[],"default_left":[false,false,false,false,false,false,false,false,false,false,false,false,false,false,false,false,false,false,false,false,false,false,false,false,false,false,false,false,false,false,false,false,false,false,false,false,false,false,false,false,false,false,false,false,false,false,false,false,false,false,false,false,false,false,false,false,false,false,false,false,false,false,false,false,false,false,false,false,false,false,false,false,false,false,false,false,false,false,false,false,false,false,false],"id":7,"left_children":[1,3,5,7,9,11,13,-1,-1,15,17,19,21,23,25,27,29,-1,31,-1,33,35,37,39,41,43,45,47,49,51,53,55,57,59,61,63,-1,65,-1,67,69,71,73,75,77,79,81,-1,-1,-1,-1,-1,-1,-1,-1,-1,-1,-1,-1,-1,-1,-1,-1,-1,-1,-1,-1,-1,-1,-1,-1,-1,-1,-1,-1,-1,-1,-1,-1,-1,-1,-1,-1],"loss_changes":[3.1323493E-1,4.792136E-2,8.766773E-2,1.165171E-2,2.2887051E-2,2.052039E-2,4.2212572E-2,0E0,0E0,3.5871148E-2,1.0024831E-2,1.0772735E-2,1.4185107E-2,2.1617692E-2,2.6693594E-2,2.2565901E-2,2.4722055E-2,0E0,1.3329387E-2,0E0,9.338304E-3,2.3397738E-3,9.106565E-4,1.8806268E-2,1.364463E-2,2.6937064E-2,4.9293935E-3,7.331431E-3,2.3571461E-2,3.6435444E-3,1.1969928E-2,3.5708696E-3,6.1978605E-3,8.72983E-3,5.7660146E-3,3.0435505E-3,0E0,2.984427E-3,0E0,9.368353E-3,2.8525285E-2,8.325297E-3,1.21122226E-4,1.906866E-2,5.7428936E-3,1.1970177E-3,6.5899733E-3,5.9201717E-3,7.325952E-5,0E0,2.6218444E-2,1.9280985E-4,7.1103255E-5,3.0845292E-3,9.773138E-4,0E0,0E0,0E0,4.6714186E-4,9.917498E-3,2.591908E-3,6.0344897E-3,1.2567445E-3,0E0,1.3246195E-3,3.491682E-4,0E0,3.2714792E-3,5.5015115E-3,2.0686958E-2,9.820596E-3,3.8797222E-3,0E0,1.2571875E-3,1.479968E-3,2.3580518E-2,3.7286156E-3,1.8265279E-4,3.9679464E-3,9.627971E-4,0E0,1.5521161E-3,8.168168E-3],"parents":[2147483647,0,0,1,1,2,2,3,3,4,4,5,5,6,6,9,9,10,10,11,11,12,12,13,13,14,14,15,15,16,16,18,18,20,20,21,21,22,22,23,23,24,24,25,25,26,26,27,27,28,28,29,29,30,30,31,31,32,32,33,33,34,34,35,35,37,37,39,39,40,40,41,41,42,42,43,43,44,44,45,45,46,46],"right_children":[2,4,6,8,10,12,14,-1,-1,16,18,20,22,24,26,28,30,-1,32,-1,34,36,38,40,42,44,46,48,50,52,54,56,58,60,62,64,-1,66,-1,68,70,72,74,76,78,80,82,-1,-1,-1,-1,-1,-1,-1,-1,-1,-1,-1,-1,-1,-1,-1,-1,-1,-1,-1,-1,-1,-1,-1,-1,-1,-1,-1,-1,-1,-1,-1,-1,-1,-1,-1,-1],"split_conditions":[7.2580647E0,1.4137931E0,1E2,6.358669E-1,2.02E0,1.9E1,2.02E0,4.1886717E-2,1.5999991E-2,1E2,2.15E0,4.125E-2,8.901795E-2,5E0,4E0,1.6689078E0,2.01E0,-1.0816902E-3,2.51E0,2.2326667E-2,2.15E0,2.98E0,2.5E0,2.19E0,3.500983E0,6.0342856E-2,1.25E2,3.6545713E0,1.8728961E0,1.031665E-1,6.86888E-2,1.5E2,2.0204082E0,8.901795E-2,1.4E1,2.15E0,1.0986829E-2,2.98E0,-9.519252E-3,3.5E0,6.788571E-2,2.2E1,1.9E1,1.9E1,1.007E1,1.4E1,1.4E1,1.49895735E-2,2.6208074E-3,2.7903767E-2,1.5960256E-2,-1.2204066E-2,1.7932238E-3,1.5537258E-2,2.20396E-3,3.8286116E-2,8.018938E-3,2.5553102E-2,7.3460727E-3,2.2792114E-2,1.0255225E-2,7.88582E-3,1.8143738E-4,1.0957016E-2,-6.4837676E-4,-6.614278E-3,4.925308E-3,-9.32249E-3,1.2885106E-3,1.3626733E-2,8.254842E-6,-5.909184E-3,-1.6617257E-2,3.2140524E-3,7.0947204E-3,1.6183054E-2,-6.4779967E-3,3.4927833E-3,-8.385064E-3,1.0025353E-2,2.2392515E-2,1.4813649E-2,5.3060097E-3],"split_indices":[2,2,0,3,1,2,1,0,0,0,4,3,3,6,6,7,5,0,1,0,4,4,1,6,4,3,0,3,7,3,3,0,2,3,2,4,0,4,0,5,3,2,2,2,2,2,2,0,0,0,0,0,0,0,0,0,0,0,0,0,0,0,0,0,0,0,0,0,0,0,0,0,0,0,0,0,0,0,0,0,0,0,0],"split_type":[0,0,0,0,0,0,0,0,0,0,0,0,0,0,0,0,0,0,0,0,0,0,0,0,0,0,0,0,0,0,0,0,0,0,0,0,0,0,0,0,0,0,0,0,0,0,0,0,0,0,0,0,0,0,0,0,0,0,0,0,0,0,0,0,0,0,0,0,0,0,0,0,0,0,0,0,0,0,0,0,0,0,0],"sum_hessian":[6.94E2,2.4E2,4.54E2,1.3E1,2.27E2,2.11E2,2.43E2,9E0,4E0,2.08E2,1.9E1,1.84E2,2.7E1,1.69E2,7.4E1,1.75E2,3.3E1,1E0,1.8E1,6E0,1.78E2,1.5E1,1.2E1,9.9E1,7E1,3.6E1,3.8E1,1.04E2,7.1E1,7E0,2.6E1,1E1,8E0,1.39E2,3.9E1,8E0,7E0,8E0,4E0,3E1,6.9E1,6.2E1,8E0,1.5E1,2.1E1,9E0,2.9E1,9.9E1,5E0,3.3E1,3.8E1,5E0,2E0,1.6E1,1E1,9E0,1E0,3E0,5E0,5E0,1.34E2,2.6E1,1.3E1,2E0,6E0,6E0,2E0,1.8E1,1.2E1,1.8E1,5.1E1,5.5E1,7E0,5E0,3E0,1.1E1,4E0,4E0,1.7E1,4E0,5E0,1.2E1,1.7E1],"tree_param":{"num_deleted":"0","num_feature":"8","num_nodes":"83","size_leaf_vector":"0"}},{"base_weights":[2.2168523E-2,4.294941E-2,1.1112783E-2,5.636332E-2,3.1817675E-2,2.1972673E-2,1.6315979E-3,9.867171E-2,5.1520422E-2,3.6142245E-2,2.3043634E-2,1.2964321E-2,2.5525952E-2,1.5129371E-2,-3.1501094E-3,1.2392352E-1,4.8635196E-2,4.735123E-2,9.302606E-2,2.8580476E-2,5.4054692E-2,4.8624068E-3,3.8848616E-2,1.7499937E-2,-2.4139364E-3,2.70294E-2,7.487068E-3,3.0355502E-2,8.0173946E-4,-1.0270721E-2,1.2127581E-2,4.986223E-2,3.04991E-3,1.351285E-2,3.374296E-2,3.7446424E-2,6.65049E-2,1.0088305E-2,-1.1625688E-2,8.982457E-2,1.8023336E-2,1.98547E-2,6.5663694E-3,2.633515E-2,-1.1795804E-2,2.4141856E-2,3.811322E-2,2.0089366E-2,-1.056384E-2,2.3954451E-2,8.2113825E-2,5.430913E-2,-6.1283023E-3,-5.335128E-3,-2.3178613E-2,-5.6333756E-3,2.8892253E-2,3.252729E-2,5.5229016E-2,-2.1293083E-2,2.0544678E-2,1.9558175E-2,-6.1166286E-3,3.6823977E-2,6.552011E-3,4.2351294E-2,-1.07060075E-2,-3.489375E-3,1.7167926E-2,8.437252E-3,-5.5970192E-2,-1.4029741E-3,1.05262995E-1,4.92252E-2,6.421161E-3,-3.2536983E-3,2.119174E-2,1.6515752E-3,1.1150849E-2,-1.6662586E-2,2.0869404E-2,2.6752317E-2,-5.421126E-3,6.469461E-2,2.5575006E-2,5.782604E-3,6.0118347E-2,1.0800223E-2,-2.3945928E-2,8.30474E-3,3.6150794E-2,6.24094E-2,1.5004158E-2,3.0762586E-4,-1.5063251E-2,1.7347805E-3,-2.3076622E-2,-4.6833456E-2,-1.53113045E-2,-1.8247781E-2,2.442617E-2,8.406033E-3,4.0310275E-2],"categories":[],"categories_nodes":[],"categories_segments":[],"categories_sizes":[],"default_left":[false,false,false,false,false,false,false,false,false,false,false,false,false,false,false,false,false,false,false,false,false,false,false,false,false,false,false,false,false,false,false,false,false,false,false,false,false,false,false,false,false,false,false,false,false,false,false,false,false,false,false,false,false,false,false,false,false,false,false,false,false,false,false,false,false,false,false,false,false,false,false,false,false,false,false,false,false,false,false,false,false,false,false,false,false,false,false,false,false,false,false,false,false,false,false,false,false,false,false,false,false,false,false],"id":8,"left_children":[1,3,5,7,9,11,13,15,17,19,21,23,25,27,29,-1,-1,31,-1,33,35,37,39,41,43,45,47,49,51,53,55,57,59,61,63,65,-1,67,69,71,73,75,77,-1,79,81,83,85,87,89,-1,91,93,95,97,99,101,-1,-1,-1,-1,-1,-1,-1,-1,-1,-1,-1,-1,-1,-1,-1,-1,-1,-1,-1,-1,-1,-1,-1,-1,-1,-1,-1,-1,-1,-1,-1,-1,-1,-1,-1,-1,-1,-1,-1,-1,-1,-1,-1,-1,-1,-1],"loss_changes":[1.591976E-1,3.41928E-2,4.6813052E-2,1.704508E-2,4.251644E-3,6.455019E-3,1.5796004E-2,6.6080764E-3,1.2726545E-2,1.0374673E-2,1.3316739E-2,4.366736E-3,3.892839E-3,1.3937544E-2,1.9814918E-2,0E0,0E0,1.0082036E-2,0E0,4.5223646E-3,2.6790425E-3,2.0990807E-3,2.4920773E-2,1.1054333E-3,4.3564457E-3,3.52858E-3,3.1694989E-3,8.303544E-3,1.2940311E-2,7.776145E-3,1.7432645E-2,6.2974095E-3,2.9927099E-3,2.2556286E-3,3.696192E-3,3.5237726E-3,0E0,1.7901523E-3,5.8103213E-3,1.0006547E-2,6.5620984E-3,1.2739282E-3,2.0690128E-4,0E0,2.2554318E-3,8.86558E-3,7.344082E-3,4.23384E-3,1.973996E-3,5.2349847E-3,0E0,3.3712294E-4,1.7872794E-3,1.145423E-2,5.610317E-3,1.1442039E-2,6.6785105E-3,6.496385E-4,7.328883E-3,1.5245987E-3,9.226275E-5,3.2617105E-4,2.5954141E-5,4.8416443E-3,8.0629165E-5,0E0,0E0,2.1998049E-4,1.0238369E-3,6.634077E-4,0E0,0E0,0E0,1.087809E-3,3.990597E-3,1.6110196E-5,2.584532E-4,0E0,3.078225E-5,1.4064533E-3,0E0,1.7509088E-3,2.0555926E-3,5.7548657E-3,2.723758E-3,3.24039E-3,0E0,1.8128052E-3,0E0,2.248921E-3,1.2770984E-3,0E0,0E0,1.7137298E-3,5.87143E-4,1.3968666E-2,2.4980213E-3,3.880037E-3,3.646548E-3,9.456495E-3,5.529413E-3,1.0756292E-2,3.832195E-3],"parents":[2147483647,0,0,1,1,2,2,3,3,4,4,5,5,6,6,7,7,8,8,9,9,10,10,11,11,12,12,13,13,14,14,17,17,19,19,20,20,21,21,22,22,23,23,24,24,25,25,26,26,27,27,28,28,29,29,30,30,31,31,32,32,33,33,34,34,35,35,37,37,38,38,39,39,40,40,41,41,42,42,44,44,45,45,46,46,47,47,48,48,49,49,51,51,52,52,53,53,54,54,55,55,56,56],"right_children":[2,4,6,8,10,12,14,16,18,20,22,24,26,28,30,-1,-1,32,-1,34,36,38,40,42,44,46,48,50,52,54,56,58,60,62,64,66,-1,68,70,72,74,76,78,-1,80,82,84,86,88,90,-1,92,94,96,98,100,102,-1,-1,-1,-1,-1,-1,-1,-1,-1,-1,-1,-1,-1,-1,-1,-1,-1,-1,-1,-1,-1,-1,-1,-1,-1,-1,-1,-1,-1,-1,-1,-1,-1,-1,-1,-1,-1,-1,-1,-1,-1,-1,-1,-1,-1,-1],"split_conditions":[7.2580647E0,2.0204082E0,1.3E1,1.2857143E0,1.8728961E0,9E0,1E2,4.7091615E-1,2.02E0,1.6689078E0,2.94E0,1.25E2,5.96E0,8.901795E-2,2.02E0,3.7177056E-2,1.45905595E-2,1.96E0,2.7907819E-2,5.8695406E-1,3.654368E-2,4E0,5.0285716E-2,8.724833E0,5.1712755E-2,3E0,1.0057143E-1,8.620408E-2,7.5E1,5.96E0,4E0,1.633924E0,2.01E0,4.312E-1,3.6545713E0,2.4210527E0,1.9951472E-2,2.6666667E0,5.1583245E-2,3.85E-2,3.5E0,7.4712644E0,8.823529E0,7.900545E-3,2.81E0,2.15E0,6.0342856E-2,1.75E2,1.25E2,2.98E0,2.4634149E-2,6E1,1.9E1,1.5390286E-1,1.4E1,3.02E0,2.5E0,9.758187E-3,1.6568705E-2,-6.3879252E-3,6.163404E-3,5.867453E-3,-1.8349887E-3,1.1047194E-2,1.9656033E-3,1.27053885E-2,-3.2118023E-3,-1.0468126E-3,5.1503778E-3,2.5311755E-3,-1.6791059E-2,-4.2089226E-4,3.15789E-2,1.476756E-2,1.9263483E-3,-9.761095E-4,6.357522E-3,4.954726E-4,3.3452548E-3,-4.998776E-3,6.2608216E-3,8.025696E-3,-1.6263378E-3,1.9408384E-2,7.672502E-3,1.7347813E-3,1.8035505E-2,3.240067E-3,-7.1837786E-3,2.4914222E-3,1.0845238E-2,1.8722821E-2,4.501248E-3,9.228776E-5,-4.5189755E-3,5.204342E-4,-6.922987E-3,-1.4050038E-2,-4.5933914E-3,-5.4743346E-3,7.3278514E-3,2.52181E-3,1.2093083E-2],"split_indices":[2,2,2,2,7,2,0,3,1,7,4,0,6,3,1,0,0,1,0,3,3,6,3,2,3,4,3,3,0,6,6,7,5,3,3,2,0,2,3,3,4,2,2,0,1,4,3,0,0,4,0,0,2,3,2,5,4,0,0,0,0,0,0,0,0,0,0,0,0,0,0,0,0,0,0,0,0,0,0,0,0,0,0,0,0,0,0,0,0,0,0,0,0,0,0,0,0,0,0,0,0,0,0],"split_type":[0,0,0,0,0,0,0,0,0,0,0,0,0,0,0,0,0,0,0,0,0,0,0,0,0,0,0,0,0,0,0,0,0,0,0,0,0,0,0,0,0,0,0,0,0,0,0,0,0,0,0,0,0,0,0,0,0,0,0,0,0,0,0,0,0,0,0,0,0,0,0,0,0,0,0,0,0,0,0,0,0,0,0,0,0,0,0,0,0,0,0,0,0,0,0,0,0,0,0,0,0,0,0],"sum_hessian":[6.94E2,2.4E2,4.54E2,1.07E2,1.33E2,2.11E2,2.43E2,9E0,9.8E1,8.7E1,4.6E1,6.1E1,1.5E2,6.3E1,1.8E2,5E0,4E0,9.1E1,7E0,6.3E1,2.4E1,2.2E1,2.4E1,4.7E1,1.4E1,1.38E2,1.2E1,3E1,3.3E1,1.23E2,5.7E1,8.6E1,5E0,1.7E1,4.6E1,1.2E1,1.2E1,1.7E1,5E0,6E0,1.8E1,3.8E1,9E0,3E0,1.1E1,1.12E2,2.6E1,7E0,5E0,2.8E1,2E0,3E0,3E1,9E1,3.3E1,2.8E1,2.9E1,2.2E1,6.4E1,2E0,3E0,1.3E1,4E0,4.1E1,5E0,1.1E1,1E0,6E0,1.1E1,4E0,1E0,1E0,5E0,4E0,1.4E1,2E0,3.6E1,5E0,4E0,1E1,1E0,1.03E2,9E0,7E0,1.9E1,6E0,1E0,2E0,3E0,1.3E1,1.5E1,2E0,1E0,1.8E1,1.2E1,6.5E1,2.5E1,7E0,2.6E1,2E1,8E0,1.1E1,1.8E1],"tree_param":{"num_deleted":"0","num_feature":"8","num_nodes":"103","size_leaf_vector":"0"}},{"base_weights":[1.5958032E-2,3.0630475E-2,7.901632E-3,7.4246965E-2,2.8660875E-2,1.218316E-2,-5.6046443E-3,9.294262E-2,3.6962796E-2,3.647023E-2,2.2490323E-2,1.5544332E-2,6.0760096E-4,-2.027179E-2,-1.2248408E-3,3.3412293E-2,6.860669E-2,3.0539352E-2,1.9478379E-2,2.754385E-2,1.2485557E-2,-5.7507446E-3,3.008509E-2,-3.3643164E-3,-3.1319153E-2,6.9360235E-3,-1.4958023E-2,3.754675E-2,1.1990597E-2,1.9828988E-2,6.420821E-2,9.7382795E-3,2.5705686E-2,3.6524266E-2,2.358512E-3,-4.958924E-2,1.360848E-2,-1.5466489E-2,1.6883004E-2,1.4235013E-2,4.8846025E-2,6.5791183E-3,-1.6612262E-2,-4.5015823E-2,-1.3707586E-2,2.1334015E-2,-5.2935034E-3,-1.6480353E-2,5.2512786E-3,3.307712E-2,8.715931E-2,1.0879224E-3,3.793943E-2,3.0684868E-2,6.7813313E-3,1.047192E-1,3.3251345E-2,7.332313E-3,3.7769753E-2,2.9011471E-2,1.2535444E-2,1.19572235E-2,7.109206E-2,4.6102196E-2,-1.2419258E-2,-1.4371693E-2,-5.6537855E-2,1.6601602E-2,4.7267377E-4,-3.6112465E-2,-5.305361E-3,-1.03705125E-2,2.665888E-2,-2.5445223E-3,2.8167546E-2,2.0176867E-2,-2.8953552E-3,-1.9119062E-2,-3.2925308E-3,-8.8363886E-4,-5.1194187E-2,-2.043747E-2,4.3213763E-3,3.6309775E-2,4.717176E-3,1.1113847E-2,-3.464382E-2,-1.9997489E-2,-6.051759E-3,8.999944E-3,-1.123026E-3],"categories":[],"categories_nodes":[],"categories_segments":[],"categories_sizes":[],"default_left":[false,false,false,false,false,false,false,false,false,false,false,false,false,false,false,false,false,false,false,false,false,false,false,false,false,false,false,false,false,false,false,false,false,false,false,false,false,false,false,false,false,false,false,false,false,false,false,false,false,false,false,false,false,false,false,false,false,false,false,false,false,false,false,false,false,false,false,false,false,false,false,false,false,false,false,false,false,false,false,false,false,false,false,false,false,false,false,false,false,false,false],"id":9,"left_children":[1,3,5,7,9,11,13,-1,-1,15,17,19,21,23,25,27,-1,29,31,33,35,37,39,41,43,45,47,49,51,53,55,57,59,61,63,65,67,69,71,73,-1,75,77,79,81,83,85,87,89,-1,-1,-1,-1,-1,-1,-1,-1,-1,-1,-1,-1,-1,-1,-1,-1,-1,-1,-1,-1,-1,-1,-1,-1,-1,-1,-1,-1,-1,-1,-1,-1,-1,-1,-1,-1,-1,-1,-1,-1,-1,-1],"loss_changes":[8.191189E-2,1.900515E-2,2.6090655E-2,3.5350993E-3,1.0600328E-2,1.3296898E-2,6.9772447E-3,0E0,0E0,7.829636E-3,2.677977E-3,9.382613E-3,1.4792401E-2,4.564207E-3,9.630093E-3,8.05223E-3,0E0,1.1348013E-2,5.875785E-3,1.1901122E-2,1.5522037E-2,1.4554864E-2,3.4677489E-3,1.5583248E-3,3.0012382E-3,9.621285E-3,1.0710293E-3,1.4857002E-2,4.768223E-3,3.7579425E-3,6.550692E-3,2.488215E-3,2.2921413E-3,3.2269847E-2,1.0269066E-2,1.6630813E-4,8.248735E-3,9.458584E-3,5.605005E-3,2.1757055E-3,0E0,9.602398E-4,1.0399951E-4,2.1360796E-3,1.0589804E-3,6.0499655E-3,1.4831853E-2,9.793434E-4,8.179257E-5,7.770382E-3,6.7891553E-3,1.6269947E-3,9.682472E-4,0E0,1.1834179E-3,0E0,1.5211017E-3,3.4742488E-3,0E0,3.334634E-3,1.1043977E-3,4.93011E-3,8.464754E-3,0E0,2.2963502E-3,0E0,0E0,1.7243419E-2,2.0060418E-3,6.99671E-4,4.7920505E-3,6.444991E-5,4.2073037E-3,3.0270957E-3,0E0,0E0,2.150862E-3,0E0,0E0,0E0,0E0,3.6962843E-4,2.0953354E-4,7.0557427E-3,8.511122E-4,6.8597756E-3,6.7720907E-3,1.5759561E-3,1.6952549E-3,0E0,0E0],"parents":[2147483647,0,0,1,1,2,2,3,3,4,4,5,5,6,6,9,9,10,10,11,11,12,12,13,13,14,14,15,15,17,17,18,18,19,19,20,20,21,21,22,22,23,23,24,24,25,25,26,26,27,27,28,28,29,29,30,30,31,31,32,32,33,33,34,34,35,35,36,36,37,37,38,38,39,39,41,41,42,42,43,43,44,44,45,45,46,46,47,47,48,48],"right_children":[2,4,6,8,10,12,14,-1,-1,16,18,20,22,24,26,28,-1,30,32,34,36,38,40,42,44,46,48,50,52,54,56,58,60,62,64,66,68,70,72,74,-1,76,78,80,82,84,86,88,90,-1,-1,-1,-1,-1,-1,-1,-1,-1,-1,-1,-1,-1,-1,-1,-1,-1,-1,-1,-1,-1,-1,-1,-1,-1,-1,-1,-1,-1,-1,-1,-1,-1,-1,-1,-1,-1,-1,-1,-1,-1,-1],"split_conditions":[7.647059E0,1.2857143E0,1.9E1,4.7091615E-1,2.0769231E0,1.5E2,3E0,2.7882786E-2,1.1088839E-2,2.02E0,5.476828E-2,8.166666E-2,2.81E0,2.551043E0,1.1733333E-1,1E2,2.0582007E-2,2.94E0,5.8695406E-1,3.500983E0,8.620408E-2,3.5E0,1.75E2,1.3475E-1,9.158507E-2,4.01E0,3.4481633E-1,4.5E1,4E0,1.7328966E0,3.5E0,1.75E2,3.6545713E0,2.98E0,3.85E-2,1E2,3E0,1.75E2,6.788571E-2,2.5E0,1.4653808E-2,2.15E0,2.511553E-1,2.94E0,2.2E1,1.9014072E1,1.5E2,6E0,1.9014072E1,9.923137E-3,2.6147796E-2,3.2637673E-4,1.1381829E-2,9.205461E-3,2.0343994E-3,3.141576E-2,9.975404E-3,2.199694E-3,1.1330927E-2,8.703441E-3,3.7606335E-3,3.5871672E-3,2.1327619E-2,1.3830659E-2,-3.7257776E-3,-4.311508E-3,-1.6961357E-2,4.9804808E-3,1.4180214E-4,-1.083374E-2,-1.5916084E-3,-3.1111538E-3,7.997665E-3,-7.6335674E-4,8.450264E-3,6.0530603E-3,-8.686066E-4,-5.7357186E-3,-9.877593E-4,-2.6509166E-4,-1.5358257E-2,-6.131241E-3,1.2964129E-3,1.0892933E-2,1.4151528E-3,3.3341541E-3,-1.0393146E-2,-5.999247E-3,-1.8155277E-3,2.6999833E-3,-3.369078E-4],"split_indices":[2,2,2,3,2,0,6,0,0,1,3,3,1,5,3,0,0,4,3,4,3,5,0,3,3,6,3,0,5,7,4,0,3,4,3,0,5,0,3,4,0,4,3,4,2,2,0,6,2,0,0,0,0,0,0,0,0,0,0,0,0,0,0,0,0,0,0,0,0,0,0,0,0,0,0,0,0,0,0,0,0,0,0,0,0,0,0,0,0,0,0],"split_type":[0,0,0,0,0,0,0,0,0,0,0,0,0,0,0,0,0,0,0,0,0,0,0,0,0,0,0,0,0,0,0,0,0,0,0,0,0,0,0,0,0,0,0,0,0,0,0,0,0,0,0,0,0,0,0,0,0,0,0,0,0,0,0,0,0,0,0,0,0,0,0,0,0,0,0,0,0,0,0,0,0,0,0,0,0,0,0,0,0,0,0],"sum_hessian":[6.94E2,2.45E2,4.49E2,9E0,2.36E2,3.41E2,1.08E2,5E0,4E0,1.02E2,1.34E2,2.64E2,7.7E1,2.4E1,8.4E1,9.5E1,7E0,3.4E1,1E2,5.2E1,2.12E2,6.4E1,1.3E1,1E1,1.4E1,5.3E1,3.1E1,7.9E1,1.6E1,2.7E1,7E0,4E1,6E1,3.8E1,1.4E1,3E0,2.09E2,4.5E1,1.9E1,8E0,5E0,6E0,4E0,7E0,7E0,2.4E1,2.9E1,2.9E1,2E0,7.4E1,5E0,1.2E1,4E0,1.4E1,1.3E1,2E0,5E0,3.8E1,2E0,4.7E1,1.3E1,2.3E1,1.5E1,3E0,1.1E1,1E0,2E0,1.7E2,3.9E1,1.4E1,3.1E1,5E0,1.4E1,4E0,4E0,2E0,4E0,3E0,1E0,1E0,6E0,5E0,2E0,1.2E1,1.2E1,1.9E1,1E1,2.1E1,8E0,1E0,1E0],"tree_param":{"num_deleted":"0","num_feature":"8","num_nodes":"91","size_leaf_vector":"0"}},{"base_weights":[1.1454688E-2,1.802742E-2,1.1046313E-3,2.9076494E-2,1.4028937E-2,4.491154E-3,-6.2325527E-3,7.394061E-2,2.6289007E-2,2.0022357E-2,1.2097538E-2,8.836959E-3,-2.67229E-3,-1.6007986E-2,6.536625E-3,2.4081439E-2,5.0597474E-2,1.4203549E-2,2.9840847E-2,1.4838023E-2,4.6478068E-3,1.8483527E-2,4.0849773E-3,-6.296187E-3,1.5669888E-2,-3.0278739E-2,-5.960551E-3,-8.934186E-4,2.0893894E-2,2.7091516E-2,6.585315E-3,7.157087E-2,3.167786E-2,1.113474E-2,3.898213E-2,6.63074E-2,1.6264336E-2,1.2937218E-2,2.9763727E-2,-2.329214E-3,1.7793072E-2,4.6591252E-2,1.0633677E-2,1.7197123E-2,-3.5382112E-4,-1.1538016E-2,2.637972E-3,2.6629038E-2,-1.2905672E-2,-1.3885224E-2,-3.350929E-2,-9.352825E-3,2.768752E-2,-1.797526E-2,1.0906186E-2,-7.817973E-3,3.981606E-2,2.3882028E-2,6.536945E-2,-1.9822145E-2,1.7039647E-2,5.661766E-2,5.05355E-3,1.7675435E-2,3.4172667E-4,1.00875765E-1,1.5162185E-2,2.6815787E-2,1.9761622E-3,1.1044715E-2,2.3482906E-2,4.702741E-2,1.5774295E-2,-6.389457E-3,1.674056E-2,2.9799717E-2,6.264907E-3,1.9707282E-3,6.1136305E-2,2.7180713E-2,1.459817E-3,2.3853143E-3,5.1360458E-2,5.1732007E-3,-8.859904E-3,-3.7959307E-2,-6.3845073E-3,7.376627E-3,-1.589651E-2,6.5805414E-3,5.004452E-2,-3.8874447E-3,-2.693817E-2,-4.6031326E-3,-3.512949E-2,-1.2544128E-2,1.29310265E-2,5.308813E-2,-1.1556849E-2,-2.9450571E-2,-3.5040725E-3,3.1686842E-2,1.3387302E-3,-2.1022052E-2,1.2393455E-2,5.514282E-2,-4.109482E-3],"categories":[],"categories_nodes":[],"categories_segments":[],"categories_sizes":[],"default_left":[false,false,false,false,false,false,false,false,false,false,false,false,false,false,false,false,false,false,false,false,false,false,false,false,false,false,false,false,false,false,false,false,false,false,false,false,false,false,false,false,false,false,false,false,false,false,false,false,false,false,false,false,false,false,false,false,false,false,false,false,false,false,false,false,false,false,false,false,false,false,false,false,false,false,false,false,false,false,false,false,false,false,false,false,false,false,false,false,false,false,false,false,false,false,false,false,false,false,false,false,false,false,false,false,false,false,false],"id":10,"left_children":[1,3,5,7,9,11,13,-1,15,17,19,21,23,25,27,29,31,33,35,37,39,41,43,45,47,49,51,53,55,57,59,-1,61,63,-1,65,67,69,71,73,75,77,79,81,83,85,87,89,-1,91,93,95,97,99,101,103,105,-1,-1,-1,-1,-1,-1,-1,-1,-1,-1,-1,-1,-1,-1,-1,-1,-1,-1,-1,-1,-1,-1,-1,-1,-1,-1,-1,-1,-1,-1,-1,-1,-1,-1,-1,-1,-1,-1,-1,-1,-1,-1,-1,-1,-1,-1,-1,-1,-1,-1],"loss_changes":[4.7259644E-2,1.8368393E-2,6.761675E-3,1.2062684E-2,3.3925436E-3,5.8139674E-3,1.0839522E-2,0E0,4.523441E-3,3.8610473E-3,4.8308447E-3,5.2419715E-3,4.8180427E-3,6.8453597E-3,4.0723225E-3,5.088065E-3,9.0725534E-4,3.2919412E-3,1.2288943E-2,4.5798384E-3,6.0946206E-3,7.888936E-3,4.6040565E-3,2.8403166E-3,4.1016317E-3,5.9391744E-4,3.6832602E-3,5.4365746E-3,7.37406E-3,8.881316E-3,4.75492E-3,0E0,3.697909E-3,3.1706817E-3,0E0,1.08465515E-2,3.1129876E-3,2.8740056E-3,3.8468502E-3,3.5137911E-3,2.9968433E-3,5.0715785E-3,4.6661273E-3,9.997906E-3,2.8666323E-3,4.9318178E-3,2.1373185E-3,3.8956874E-3,0E0,5.477817E-4,5.8763474E-4,2.153415E-3,3.6040237E-3,1.7234785E-3,3.1386684E-3,1.8617755E-3,5.612499E-3,5.9686787E-3,1.03041325E-2,1.5788309E-3,3.6757067E-3,0E0,1.0353077E-3,2.2888053E-3,7.123257E-3,0E0,0E0,1.0877633E-3,1.0640679E-3,1.8324181E-3,0E0,0E0,3.039928E-3,1.8022148E-3,6.66417E-3,1.9503916E-3,1.4187465E-3,5.8388978E-5,7.3494297E-3,1.5715612E-2,5.6970087E-3,1.0243183E-3,0E0,4.6394495E-3,4.1707093E-3,5.592918E-4,2.4269833E-3,1.704044E-3,4.8214116E-4,4.008117E-3,0E0,5.716636E-4,0E0,0E0,0E0,1.8391088E-3,0E0,0E0,0E0,2.2595902E-3,3.8317766E-4,2.2222036E-3,4.7558164E-3,2.574015E-4,3.881904E-5,6.7585707E-4,5.775146E-4],"parents":[2147483647,0,0,1,1,2,2,3,3,4,4,5,5,6,6,8,8,9,9,10,10,11,11,12,12,13,13,14,14,15,15,16,16,17,17,18,18,19,19,20,20,21,21,22,22,23,23,24,24,25,25,26,26,27,27,28,28,29,29,30,30,32,32,33,33,35,35,36,36,37,37,38,38,39,39,40,40,41,41,42,42,43,43,44,44,45,45,46,46,47,47,49,49,50,50,51,51,52,52,53,53,54,54,55,55,56,56],"right_children":[2,4,6,8,10,12,14,-1,16,18,20,22,24,26,28,30,32,34,36,38,40,42,44,46,48,50,52,54,56,58,60,-1,62,64,-1,66,68,70,72,74,76,78,80,82,84,86,88,90,-1,92,94,96,98,100,102,104,106,-1,-1,-1,-1,-1,-1,-1,-1,-1,-1,-1,-1,-1,-1,-1,-1,-1,-1,-1,-1,-1,-1,-1,-1,-1,-1,-1,-1,-1,-1,-1,-1,-1,-1,-1,-1,-1,-1,-1,-1,-1,-1,-1,-1,-1,-1,-1,-1,-1,-1],"split_conditions":[1.04E1,2.0769231E0,1.5E2,2.7580136E-2,7.6721646E-2,1.9E1,1.96E0,2.2182185E-2,2.02E0,3E0,2.15E0,8.901795E-2,5.96E0,1.03125E-1,3.0009642E0,1E2,3.5E0,6.875E-2,3.5E0,1.6689078E0,2.02E0,2.001856E0,1.6089948E0,2.2E1,1.0086083E-1,2.001856E0,4E0,1.75E2,1.4444445E1,4.5E1,1.25E2,2.1471262E-2,3.96E-2,4.7196876E-2,1.169464E-2,1.5E2,5.476828E-2,1.031746E1,3E1,3.5E0,3.5E0,4.450897E-2,2.551043E0,9.687016E-1,2.0633298E-1,2.001856E0,1.6333333E-1,7.6320894E-2,-3.871702E-3,1.9014072E1,2.5E0,2.75E-1,1.9E1,1.9E1,1.4E1,8.9833334E-2,1.9014072E1,7.1646087E-3,1.9610835E-2,-5.9466437E-3,5.1118946E-3,1.6985299E-2,1.5160651E-3,5.302631E-3,1.02518E-4,3.0262731E-2,4.548656E-3,8.044736E-3,5.928487E-4,3.3134145E-3,7.044872E-3,1.4108223E-2,4.7322884E-3,-1.9168371E-3,5.022168E-3,8.939915E-3,1.8794722E-3,5.912185E-4,1.8340893E-2,8.154214E-3,4.3794513E-4,7.1559433E-4,1.5408138E-2,1.5519602E-3,-2.657971E-3,-1.1387792E-2,-1.9153523E-3,2.2129882E-3,-4.768953E-3,1.9741624E-3,1.5013357E-2,-1.1662334E-3,-8.081451E-3,-1.3809399E-3,-1.0538848E-2,-3.7632387E-3,3.879308E-3,1.592644E-2,-3.4670548E-3,-8.835171E-3,-1.0512219E-3,9.506053E-3,4.016191E-4,-6.3066157E-3,3.7180367E-3,1.6542846E-2,-1.2328445E-3],"split_indices":[2,2,0,3,3,2,1,0,1,4,4,3,6,3,5,0,4,3,4,7,1,6,7,2,3,6,5,0,2,0,0,0,3,3,0,0,3,2,0,5,4,3,5,7,3,6,3,3,0,2,4,3,2,2,2,3,2,0,0,0,0,0,0,0,0,0,0,0,0,0,0,0,0,0,0,0,0,0,0,0,0,0,0,0,0,0,0,0,0,0,0,0,0,0,0,0,0,0,0,0,0,0,0,0,0,0,0],"split_type":[0,0,0,0,0,0,0,0,0,0,0,0,0,0,0,0,0,0,0,0,0,0,0,0,0,0,0,0,0,0,0,0,0,0,0,0,0,0,0,0,0,0,0,0,0,0,0,0,0,0,0,0,0,0,0,0,0,0,0,0,0,0,0,0,0,0,0,0,0,0,0,0,0,0,0,0,0,0,0,0,0,0,0,0,0,0,0,0,0,0,0,0,0,0,0,0,0,0,0,0,0,0,0,0,0,0,0],"sum_hessian":[6.94E2,4.24E2,2.7E2,1.11E2,3.13E2,1.85E2,8.5E1,5E0,1.06E2,7.4E1,2.39E2,1.15E2,7E1,4.8E1,3.7E1,9.9E1,7E0,4.8E1,2.6E1,1.74E2,6.5E1,3.7E1,7.8E1,5.9E1,1.1E1,1.9E1,2.9E1,2.5E1,1.2E1,8.4E1,1.5E1,2E0,5E0,4.4E1,4E0,6E0,2E1,1.56E2,1.8E1,4.3E1,2.2E1,7E0,3E1,1.9E1,5.9E1,3.7E1,2.2E1,8E0,3E0,4E0,1.5E1,2.7E1,2E0,1E1,1.5E1,5E0,7E0,7.9E1,5E0,4E0,1.1E1,2E0,3E0,2.7E1,1.7E1,3E0,3E0,1.1E1,9E0,1.34E2,2.2E1,7E0,1.1E1,3.6E1,7E0,1E1,1.2E1,2E0,5E0,1E1,2E1,1.4E1,5E0,3.6E1,2.3E1,5E0,3.2E1,1.8E1,4E0,5E0,3E0,3E0,1E0,1E0,1.4E1,2.4E1,3E0,1E0,1E0,5E0,5E0,4E0,1.1E1,3E0,2E0,5E0,2E0],"tree_param":{"num_deleted":"0","num_feature":"8","num_nodes":"107","size_leaf_vector":"0"}},{"base_weights":[8.357439E-3,1.2741471E-2,3.5425188E-4,4.6418358E-2,1.1947129E-2,3.1704746E-2,-2.9227787E-4,5.873056E-2,2.2360038E-2,1.7985705E-2,9.678378E-3,3.5207555E-2,8.84676E-3,4.2961976E-3,-3.7562896E-3,1.6223041E-2,4.0414795E-2,8.602264E-3,1.6647656E-2,2.352462E-2,3.142909E-4,-1.1927816E-2,-1.3003162E-3,2.0905135E-2,7.92181E-3,5.72567E-2,2.5258044E-2,1.0049701E-2,-2.9746536E-3,3.8845982E-2,7.517734E-3,-2.8568148E-3,5.0223477E-2,1.6138634E-2,-5.2050147E-3,-2.4489589E-2,-7.430936E-3,-9.422224E-3,2.398953E-3,1.1961488E-2,4.861075E-2,-2.9150133E-3,1.790597E-2,4.5294125E-2,3.916472E-3,1.06752245E-2,-7.886576E-3,3.7964273E-3,-2.376245E-2,5.973204E-2,1.5394219E-2,-2.9085008E-3,1.26211075E-2,2.0338625E-2,-1.5703235E-2,5.765252E-2,-4.604429E-3,2.70447E-2,-7.6908283E-3,-1.0471943E-2,9.4219E-3,-2.9375944E-2,4.8574507E-3,-2.5900132E-3,-1.9509021E-2,-2.914927E-2,1.2798089E-3,1.985247E-2,-1.2406452E-3],"categories":[],"categories_nodes":[],"categories_segments":[],"categories_sizes":[],"default_left":[false,false,false,false,false,false,false,false,false,false,false,false,false,false,false,false,false,false,false,false,false,false,false,false,false,false,false,false,false,false,false,false,false,false,false,false,false,false,false,false,false,false,false,false,false,false,false,false,false,false,false,false,false,false,false,false,false,false,false,false,false,false,false,false,false,false,false,false,false],"id":11,"left_children":[1,3,5,7,9,11,13,-1,-1,15,17,-1,-1,19,21,23,25,27,29,31,33,35,37,39,41,-1,43,45,47,49,51,53,55,57,59,61,63,65,67,-1,-1,-1,-1,-1,-1,-1,-1,-1,-1,-1,-1,-1,-1,-1,-1,-1,-1,-1,-1,-1,-1,-1,-1,-1,-1,-1,-1,-1,-1],"loss_changes":[2.4380412E-2,1.1456609E-2,5.0157164E-3,1.6488917E-3,5.853936E-3,8.8863075E-5,3.8785092E-3,0E0,0E0,4.0490106E-3,2.271708E-3,0E0,0E0,8.032014E-3,2.7740882E-3,4.1875113E-3,5.9595704E-4,4.7385693E-3,8.2200635E-3,1.2821853E-2,7.7698682E-3,1.6256603E-3,3.2674768E-3,1.7011581E-2,4.596452E-3,0E0,2.3882159E-3,2.8890837E-3,4.594399E-3,4.9582496E-3,1.6861866E-3,3.299166E-3,3.931325E-3,6.1853672E-3,5.183233E-3,1.2898929E-3,1.4111985E-3,7.215368E-3,4.788914E-3,1.8079607E-3,2.879899E-3,4.7610834E-4,7.953707E-3,0E0,1.0255562E-3,5.3851865E-3,5.0647E-4,3.2114934E-3,5.318527E-3,1.9517075E-3,9.734263E-4,7.7845034E-4,1.2832566E-3,8.7883556E-5,1.6727862E-3,3.886953E-3,0E0,8.027745E-3,9.216354E-3,4.1131387E-3,1.998378E-3,0E0,0E0,1.3544019E-3,1.9420469E-3,2.4848916E-3,2.5354417E-3,4.5618108E-3,7.683891E-3],"parents":[2147483647,0,0,1,1,2,2,3,3,4,4,5,5,6,6,9,9,10,10,13,13,14,14,15,15,16,16,17,17,18,18,19,19,20,20,21,21,22,22,23,23,24,24,26,26,27,27,28,28,29,29,30,30,31,31,32,32,33,33,34,34,35,35,36,36,37,37,38,38],"right_children":[2,4,6,8,10,12,14,-1,-1,16,18,-1,-1,20,22,24,26,28,30,32,34,36,38,40,42,-1,44,46,48,50,52,54,56,58,60,62,64,66,68,-1,-1,-1,-1,-1,-1,-1,-1,-1,-1,-1,-1,-1,-1,-1,-1,-1,-1,-1,-1,-1,-1,-1,-1,-1,-1,-1,-1,-1,-1],"split_conditions":[1.2745098E1,1.2857143E0,3.96E-2,4.7091615E-1,2.2173913E0,1E2,2.551043E0,1.7619168E-2,6.7080115E-3,2.02E0,2.02E0,1.0562267E-2,2.6540281E-3,6.0342856E-2,2.5E0,1.8728961E0,3.5E0,4.01E0,2.551043E0,2.94E0,2.15E0,1.4E1,1.5E0,1.6689078E0,3E1,1.717701E-2,3.96E-2,3.500983E0,2E0,1.0057143E-1,4E0,1.4E1,1.9014072E1,1.9E1,2.02E0,2.02E0,2.02E0,6.9584765E-2,2.94E0,3.5884466E-3,1.4583225E-2,-8.7450404E-4,5.371791E-3,1.3588238E-2,1.1749417E-3,3.2025676E-3,-2.3659728E-3,1.1389282E-3,-7.128735E-3,1.7919613E-2,4.618266E-3,-8.725503E-4,3.7863324E-3,6.101588E-3,-4.7109704E-3,1.7295755E-2,-1.3813288E-3,8.11341E-3,-2.3072485E-3,-3.141583E-3,2.82657E-3,-8.812783E-3,1.4572353E-3,-7.77004E-4,-5.8527067E-3,-8.744781E-3,3.839427E-4,5.9557413E-3,-3.7219358E-4],"split_indices":[2,2,3,3,2,0,5,0,0,1,1,0,0,3,4,7,4,6,5,4,4,2,1,7,0,0,3,4,1,3,6,2,2,2,1,1,1,3,4,0,0,0,0,0,0,0,0,0,0,0,0,0,0,0,0,0,0,0,0,0,0,0,0,0,0,0,0,0,0],"split_type":[0,0,0,0,0,0,0,0,0,0,0,0,0,0,0,0,0,0,0,0,0,0,0,0,0,0,0,0,0,0,0,0,0,0,0,0,0,0,0,0,0,0,0,0,0,0,0,0,0,0,0,0,0,0,0,0,0,0,0,0,0,0,0,0,0,0,0,0,0],"sum_hessian":[6.94E2,4.48E2,2.46E2,9E0,4.39E2,4E0,2.42E2,5E0,4E0,1.18E2,3.21E2,3E0,1E0,1.04E2,1.38E2,1.11E2,7E0,2.8E2,4.1E1,1.7E1,8.7E1,3.1E1,1.07E2,7E1,4.1E1,2E0,5E0,2.49E2,3.1E1,1.1E1,3E1,9E0,8E0,2.2E1,6.5E1,7E0,2.4E1,3.3E1,7.4E1,5.4E1,1.6E1,2E1,2.1E1,2E0,3E0,2.41E2,8E0,2.4E1,7E0,5E0,6E0,1E1,2E1,3E0,6E0,7E0,1E0,1.5E1,7E0,4.8E1,1.7E1,6E0,1E0,1.8E1,6E0,1.1E1,2.2E1,1.2E1,6.2E1],"tree_param":{"num_deleted":"0","num_feature":"8","num_nodes":"69","size_leaf_vector":"0"}},{"base_weights":[6.020692E-3,1.19646145E-2,2.7579686E-3,3.492558E-2,1.0945314E-2,2.7764238E-2,2.3001623E-3,4.404795E-2,1.6993618E-2,9.63308E-3,2.4701398E-2,2.9582057E-2,7.519752E-3,4.2288015E-3,-2.2758648E-3,5.327776E-2,1.7058888E-2,1.1306079E-2,-2.6205843E-3,5.4139018E-2,1.1279591E-2,5.5712047E-3,-6.9111795E-3,-5.9737493E-3,5.255671E-3,9.736462E-3,2.593813E-2,3.8952023E-2,-1.3839451E-2,6.8942875E-2,1.6354203E-2,2.8418712E-2,-7.2694793E-3,1.55786155E-2,3.9286315E-3,1.3815974E-2,-1.096124E-2,-7.564976E-3,9.01104E-3,1.5215046E-2,-2.224474E-3,1.2382188E-2,-3.4639537E-3,7.4428216E-2,1.1278232E-2,5.005446E-2,1.1164765E-2,-2.5762456E-2,-1.7567426E-3,5.36414E-3,3.5209548E-2,-1.2723088E-2,6.0608983E-3,-2.5829544E-5,3.5774123E-2,7.0076333E-3,-1.1341831E-3,1.6283387E-2,7.394552E-4,-1.8368635E-2,-4.3147343E-4,-2.5411308E-2,-4.9812496E-3,4.354179E-3,1.6873369E-2,7.0838295E-3,4.393615E-2,4.3283063E-3,-9.110201E-3],"categories":[],"categories_nodes":[],"categories_segments":[],"categories_sizes":[],"default_left":[false,false,false,false,false,false,false,false,false,false,false,false,false,false,false,false,false,false,false,false,false,false,false,false,false,false,false,false,false,false,false,false,false,false,false,false,false,false,false,false,false,false,false,false,false,false,false,false,false,false,false,false,false,false,false,false,false,false,false,false,false,false,false,false,false,false,false,false,false],"id":12,"left_children":[1,3,5,7,9,11,13,15,-1,17,19,-1,-1,21,23,-1,-1,25,27,29,31,33,35,37,39,41,43,45,47,-1,-1,49,51,53,55,57,59,61,63,65,67,-1,-1,-1,-1,-1,-1,-1,-1,-1,-1,-1,-1,-1,-1,-1,-1,-1,-1,-1,-1,-1,-1,-1,-1,-1,-1,-1,-1],"loss_changes":[1.3445398E-2,5.375143E-3,5.087749E-3,8.872859E-4,4.0401854E-3,7.1956776E-5,3.919323E-3,5.8576465E-4,0E0,4.498709E-3,7.2914558E-3,0E0,0E0,4.7042607E-3,3.7076953E-3,0E0,0E0,4.1570645E-3,1.3131808E-2,2.2286586E-3,4.9753105E-3,4.524973E-3,3.0056117E-3,2.1903017E-3,3.311738E-3,6.1547104E-3,1.1956057E-2,1.2921914E-3,3.1241095E-3,0E0,0E0,1.0636095E-3,6.5870275E-4,1.2291372E-2,3.7647558E-3,1.8155028E-4,2.2540202E-3,3.6083334E-3,2.5605434E-4,4.1259765E-3,1.2125687E-3,1.1500459E-2,5.8563246E-4,0E0,4.2527723E-3,0E0,0E0,1.1592573E-3,1.978934E-3,1.0176894E-3,0E0,4.6820438E-4,0E0,2.853686E-3,1.1134276E-2,1.0501318E-2,4.4133384E-3,0E0,0E0,2.434217E-3,2.6231734E-3,3.9568357E-4,1.6774643E-3,6.0818985E-4,2.1245722E-3,8.813745E-3,2.9888172E-3,6.3655735E-4,1.0354696E-3],"parents":[2147483647,0,0,1,1,2,2,3,3,4,4,5,5,6,6,7,7,9,9,10,10,13,13,14,14,17,17,18,18,19,19,20,20,21,21,22,22,23,23,24,24,25,25,26,26,27,27,28,28,31,31,32,32,33,33,34,34,35,35,36,36,37,37,38,38,39,39,40,40],"right_children":[2,4,6,8,10,12,14,16,-1,18,20,-1,-1,22,24,-1,-1,26,28,30,32,34,36,38,40,42,44,46,48,-1,-1,50,52,54,56,58,60,62,64,66,68,-1,-1,-1,-1,-1,-1,-1,-1,-1,-1,-1,-1,-1,-1,-1,-1,-1,-1,-1,-1,-1,-1,-1,-1,-1,-1,-1,-1],"split_conditions":[7.647059E0,1.2857143E0,3.96E-2,4.7091615E-1,2.02E0,1.5E2,4.02E0,1.8728961E0,5.0980854E-3,1.1338466E0,2.551043E0,8.8746175E-3,2.2559257E-3,1.937E1,2.5E0,1.5983328E-2,5.117667E-3,6E1,4.310204E-2,1.25E2,5.1583245E-2,6.0342856E-2,2.15E0,3.500983E0,3.5E0,1.8728961E0,1E2,1E2,1.25E2,2.0682864E-2,4.9062613E-3,3.85E-2,3.500983E0,5.15625E-2,1E2,8.901795E-2,4E0,5.1583245E-2,1.9014072E1,1.9014072E1,1.1433333E-1,3.7146565E-3,-1.0391861E-3,2.2328466E-2,3.3834695E-3,1.5016339E-2,3.3494297E-3,-7.728737E-3,-5.270228E-4,1.609242E-3,1.0562865E-2,-3.8169266E-3,1.8182696E-3,-7.748864E-6,1.0732237E-2,2.10229E-3,-3.4025495E-4,4.8850165E-3,2.2183657E-4,-5.510591E-3,-1.2944204E-4,-7.6233926E-3,-1.4943749E-3,1.3062537E-3,5.062011E-3,2.125149E-3,1.3180845E-2,1.298492E-3,-2.7330604E-3],"split_indices":[2,2,3,3,1,0,6,7,0,1,5,0,0,2,1,0,0,0,3,0,3,3,4,4,4,7,0,0,0,0,0,3,4,3,0,3,6,3,2,2,3,0,0,0,0,0,0,0,0,0,0,0,0,0,0,0,0,0,0,0,0,0,0,0,0,0,0,0,0],"split_type":[0,0,0,0,0,0,0,0,0,0,0,0,0,0,0,0,0,0,0,0,0,0,0,0,0,0,0,0,0,0,0,0,0,0,0,0,0,0,0,0,0,0,0,0,0,0,0,0,0,0,0,0,0,0,0,0,0,0,0,0,0,0,0,0,0,0,0,0,0],"sum_hessian":[6.94E2,2.45E2,4.49E2,9E0,2.36E2,7E0,4.42E2,5E0,4E0,2.17E2,1.9E1,6E0,1E0,3.11E2,1.31E2,3E0,2E0,1.91E2,2.6E1,5E0,1.4E1,2.78E2,3.3E1,8.8E1,4.3E1,1.74E2,1.7E1,5E0,2.1E1,3E0,2E0,7E0,7E0,3.8E1,2.4E2,5E0,2.8E1,8E1,8E0,1.8E1,2.5E1,1.45E2,2.9E1,3E0,1.4E1,3E0,2E0,1E1,1.1E1,2E0,5E0,5E0,2E0,2.2E1,1.6E1,1.49E2,9.1E1,4E0,1E0,1.6E1,1.2E1,9E0,7.1E1,6E0,2E0,1.5E1,3E0,1.3E1,1.2E1],"tree_param":{"num_deleted":"0","num_feature":"8","num_nodes":"69","size_leaf_vector":"0"}},{"base_weights":[4.408237E-3,1.2576829E-2,2.8341096E-3,5.3448444E-3,1.8322866E-2,5.011269E-3,3.0103896E-4,2.593997E-3,1.98064E-2,4.385314E-2,9.96293E-3,4.2251786E-3,1.5252778E-2,7.1342867E-3,-1.091131E-3,1.02856355E-2,-2.6298363E-3,2.6593447E-2,1.311181E-2,6.281941E-3,2.758263E-2,4.8830495E-3,-6.096908E-3,7.656895E-3,3.423232E-2,2.4400658E-3,4.5138884E-2,-1.28887575E-2,9.928608E-4,5.4104584E-3,2.1879006E-2,8.8176895E-3,-6.320448E-3,1.1030471E-2,-6.1128787E-3,1.678433E-2,3.998502E-2,9.601172E-3,3.5280099E-3,8.804032E-5,-2.219538E-2,2.2007853E-2,-1.566584E-4,9.560783E-3,4.417789E-2,-4.0032375E-3,1.7121531E-2,1.0262826E-1,5.109474E-3,-2.6446426E-2,-6.95014E-3,6.3069067E-3,-3.3371844E-3,1.2915134E-2,1.1170745E-3,1.1425758E-2,1.5316805E-3,4.253292E-3,-9.058581E-3,1.4523424E-3,3.7188783E-2,1.5938446E-2,-1.5234258E-2,2.5417542E-2,-1.31908655E-2,3.3640098E-3,1.9759787E-2,-2.2616029E-2,4.254722E-3,-9.57311E-3,8.530542E-3,-2.7713478E-3,-2.6358552E-2,3.469951E-2,-2.072522E-2,-4.792097E-3,1.53470235E-2,2.7597845E-2,-1.3256669E-2,8.213705E-3,-8.819113E-3,2.712214E-2,9.3379617E-4,-1.5344232E-2,1.704212E-2,1.7600656E-3,-3.3718057E-2,5.574206E-3,-2.6294079E-2,2.271374E-2,2.28968E-3,-6.7096525E-3,3.7921683E-3],"categories":[],"categories_nodes":[],"categories_segments":[],"categories_sizes":[],"default_left":[false,false,false,false,false,false,false,false,false,false,false,false,false,false,false,false,false,false,false,false,false,false,false,false,false,false,false,false,false,false,false,false,false,false,false,false,false,false,false,false,false,false,false,false,false,false,false,false,false,false,false,false,false,false,false,false,false,false,false,false,false,false,false,false,false,false,false,false,false,false,false,false,false,false,false,false,false,false,false,false,false,false,false,false,false,false,false,false,false,false,false,false,false],"id":13,"left_children":[1,3,5,7,9,11,13,15,17,-1,19,21,23,25,27,29,31,-1,-1,33,35,37,39,41,43,45,47,49,51,53,-1,55,57,59,61,63,-1,65,67,69,71,73,75,77,-1,79,81,-1,83,85,87,89,91,-1,-1,-1,-1,-1,-1,-1,-1,-1,-1,-1,-1,-1,-1,-1,-1,-1,-1,-1,-1,-1,-1,-1,-1,-1,-1,-1,-1,-1,-1,-1,-1,-1,-1,-1,-1,-1,-1,-1,-1],"loss_changes":[8.900949E-3,4.5562554E-3,3.219192E-3,1.9774805E-3,1.2795845E-2,2.4634898E-3,2.585819E-3,1.7949626E-3,1.4804071E-5,0E0,2.9399074E-3,2.0194175E-3,2.9095467E-3,8.0963485E-3,5.569269E-3,8.989797E-4,1.1964379E-3,0E0,0E0,2.480572E-3,4.002764E-4,1.7306623E-3,1.7941821E-3,1.9096914E-3,1.0498599E-3,4.041621E-3,1.0981953E-2,2.5536628E-3,4.4619883E-3,4.3665923E-4,0E0,1.1551619E-4,6.465272E-4,7.4624196E-3,2.6564726E-3,1.8879729E-3,0E0,3.7985449E-3,4.2000487E-3,1.2235638E-3,3.3127912E-4,3.9732764E-3,9.359409E-4,1.6005349E-3,0E0,1.8374957E-3,2.0792072E-3,0E0,1.2377657E-3,2.1104184E-3,6.2033236E-3,5.6821597E-3,2.5981003E-3,0E0,4.368891E-4,0E0,5.0583424E-4,2.3625005E-5,1.0019394E-3,6.793464E-4,9.5767155E-3,8.3435257E-4,9.510231E-4,2.0959461E-4,0E0,8.970318E-4,3.8414225E-3,0E0,2.269055E-3,1.153365E-4,1.1127244E-4,0E0,0E0,6.459141E-5,0E0,1.4429846E-4,0E0,0E0,0E0,4.7320663E-4,6.0361787E-4,9.588087E-4,3.6890872E-3,0E0,8.884847E-4,2.3836215E-5,6.2314235E-4,4.0567536E-3,1.1898982E-3,7.5217104E-3,2.24051E-3,1.9540645E-3,2.9594982E-3],"parents":[2147483647,0,0,1,1,2,2,3,3,4,4,5,5,6,6,7,7,8,8,10,10,11,11,12,12,13,13,14,14,15,15,16,16,19,19,20,20,21,21,22,22,23,23,24,24,25,25,26,26,27,27,28,28,29,29,31,31,32,32,33,33,34,34,35,35,37,37,38,38,39,39,40,40,41,41,42,42,43,43,45,45,46,46,48,48,49,49,50,50,51,51,52,52],"right_children":[2,4,6,8,10,12,14,16,18,-1,20,22,24,26,28,30,32,-1,-1,34,36,38,40,42,44,46,48,50,52,54,-1,56,58,60,62,64,-1,66,68,70,72,74,76,78,-1,80,82,-1,84,86,88,90,92,-1,-1,-1,-1,-1,-1,-1,-1,-1,-1,-1,-1,-1,-1,-1,-1,-1,-1,-1,-1,-1,-1,-1,-1,-1,-1,-1,-1,-1,-1,-1,-1,-1,-1,-1,-1,-1,-1,-1,-1],"split_conditions":[2.0769231E0,1.6689078E0,1.04E1,1.1239986E0,1.8728961E0,1.75E2,5.476828E-2,1.7173913E0,1.7647059E0,1.3155943E-2,2.02E0,1.5E2,3.5E0,5.1712755E-2,6.968943E-2,9.602195E-1,8.078091E-1,7.978034E-3,3.9335433E-3,6.0342856E-2,7.92E-2,8.166666E-2,1.2068571E-1,6.9584765E-2,6.788571E-2,2.02E0,1.4E1,1.4444445E1,1.375E-1,1.2857143E0,6.563702E-3,1.96E0,2.5429472E-1,3.447517E-2,2.01E0,7.6320894E-2,1.19955065E-2,2.94E0,8.8E-2,3.0009642E0,6.04E0,1.007E1,4E0,6.04E0,1.32533675E-2,1E2,1.9E1,3.078848E-2,1.9E1,2.98E0,1.9014072E1,1.1338466E0,4.0184844E-1,3.8745406E-3,3.3512237E-4,3.4277274E-3,4.5950417E-4,1.2759876E-3,-2.7175744E-3,4.3570274E-4,1.1156635E-2,4.781534E-3,-4.5702774E-3,7.6252627E-3,-3.95726E-3,1.009203E-3,5.9279366E-3,-6.784809E-3,1.2764167E-3,-2.8719332E-3,2.5591627E-3,-8.3140435E-4,-7.907566E-3,1.0409853E-2,-6.2175663E-3,-1.4376291E-3,4.6041072E-3,8.279353E-3,-3.9770007E-3,2.4641117E-3,-2.6457338E-3,8.136642E-3,2.8013886E-4,-4.60327E-3,5.1126364E-3,5.280197E-4,-1.0115418E-2,1.6722619E-3,-7.888224E-3,6.814122E-3,6.8690407E-4,-2.012896E-3,1.1376506E-3],"split_indices":[2,7,2,3,7,0,3,2,2,0,1,0,5,3,3,3,7,0,0,3,3,3,3,3,3,1,2,2,3,2,0,2,3,3,5,3,0,4,3,5,2,2,4,2,0,0,2,0,2,4,2,1,3,0,0,0,0,0,0,0,0,0,0,0,0,0,0,0,0,0,0,0,0,0,0,0,0,0,0,0,0,0,0,0,0,0,0,0,0,0,0,0,0],"split_type":[0,0,0,0,0,0,0,0,0,0,0,0,0,0,0,0,0,0,0,0,0,0,0,0,0,0,0,0,0,0,0,0,0,0,0,0,0,0,0,0,0,0,0,0,0,0,0,0,0,0,0,0,0,0,0,0,0,0,0,0,0,0,0,0,0,0,0,0,0,0,0,0,0,0,0,0,0,0,0,0,0,0,0,0,0,0,0,0,0,0,0,0,0],"sum_hessian":[6.94E2,1.11E2,5.83E2,5E1,6.1E1,3.13E2,2.7E2,4.3E1,7E0,1.4E1,4.7E1,2.92E2,2.1E1,4.5E1,2.25E2,1.7E1,2.6E1,2E0,5E0,4E1,7E0,2.75E2,1.7E1,1.6E1,5E0,4.1E1,4E0,3.3E1,1.92E2,1.3E1,4E0,6E0,2E1,2.9E1,1.1E1,5E0,2E0,6E1,2.15E2,1.3E1,4E0,5E0,1.1E1,2E0,3E0,2.9E1,1.2E1,1E0,3E0,9E0,2.4E1,8.6E1,1.06E2,4E0,9E0,4E0,2E0,4E0,1.6E1,2.2E1,7E0,3E0,8E0,4E0,1E0,3.8E1,2.2E1,5E0,2.1E2,6E0,7E0,1E0,3E0,4E0,1E0,9E0,2E0,1E0,1E0,8E0,2.1E1,7E0,5E0,1E0,2E0,2E0,7E0,1.5E1,9E0,1.6E1,7E1,7.2E1,3.4E1],"tree_param":{"num_deleted":"0","num_feature":"8","num_nodes":"93","size_leaf_vector":"0"}},{"base_weights":[3.2489316E-3,9.390867E-3,2.065463E-3,3.768881E-2,8.533734E-3,2.3686096E-2,1.9130567E-3,9.253212E-3,-1.2845755E-2,6.064817E-3,1.0890196E-3,6.0819513E-3,1.6495794E-2,-1.7977834E-2,1.2752414E-3,3.20455E-3,3.3358004E-2,3.0712949E-3,-1.4660624E-3,9.539543E-4,1.2388478E-2,3.8235903E-2,7.6559284E-3,-1.0023757E-3,7.836001E-3,4.7567695E-2,3.7039667E-3,1.1490386E-2,1.3667122E-3,-3.7134448E-3,3.7081842E-3,1.136797E-2,-1.7511913E-3,6.0012955E-3,4.1195113E-2,6.363809E-2,5.186534E-3,1.9543832E-2,-2.231419E-3,2.9632081E-3,-1.0561481E-2,1.6510464E-2,-4.6471986E-3,2.2187626E-2,8.723402E-2,-1.3042599E-2,1.3633688E-2,3.304802E-3,2.9964235E-2,-2.34531E-3,4.817702E-3,-1.3966533E-2,-1.6331195E-3,-1.7632231E-3,1.19831115E-2],"categories":[],"categories_nodes":[],"categories_segments":[],"categories_sizes":[],"default_left":[false,false,false,false,false,false,false,false,false,false,false,false,false,false,false,false,false,false,false,false,false,false,false,false,false,false,false,false,false,false,false,false,false,false,false,false,false,false,false,false,false,false,false,false,false,false,false,false,false,false,false,false,false,false,false],"id":14,"left_children":[1,3,5,-1,7,-1,9,11,13,15,17,19,21,-1,-1,23,25,27,29,31,33,35,37,39,41,43,45,47,49,51,53,-1,-1,-1,-1,-1,-1,-1,-1,-1,-1,-1,-1,-1,-1,-1,-1,-1,-1,-1,-1,-1,-1,-1,-1],"loss_changes":[5.032412E-3,2.3949472E-3,1.8790362E-3,0E0,1.8108934E-3,0E0,1.9811154E-3,2.3572622E-3,3.1280634E-4,7.38742E-3,2.4660327E-3,2.446011E-3,5.857018E-3,0E0,0E0,1.7224618E-3,3.616183E-3,3.91648E-3,2.4906427E-3,1.231279E-3,6.008547E-3,7.2256746E-3,2.8645664E-3,1.8129454E-3,4.6247E-3,4.104889E-3,8.4297365E-4,6.857058E-3,2.9448234E-3,3.155325E-3,2.9640363E-3,1.2982601E-3,8.51103E-4,5.2389584E-4,0E0,0E0,1.5279799E-3,1.2200843E-3,3.3454902E-3,1.5373868E-3,2.5334486E-3,1.0565114E-3,2.5484052E-3,0E0,0E0,0E0,9.6690195E-4,8.286825E-4,4.978248E-3,1.6841167E-3,5.410637E-3,2.3274021E-3,3.3901152E-3,1.6148171E-3,2.5835938E-3],"parents":[2147483647,0,0,1,1,2,2,4,4,6,6,7,7,8,8,9,9,10,10,11,11,12,12,15,15,16,16,17,17,18,18,19,19,20,20,21,21,22,22,23,23,24,24,25,25,26,26,27,27,28,28,29,29,30,30],"right_children":[2,4,6,-1,8,-1,10,12,14,16,18,20,22,-1,-1,24,26,28,30,32,34,36,38,40,42,44,46,48,50,52,54,-1,-1,-1,-1,-1,-1,-1,-1,-1,-1,-1,-1,-1,-1,-1,-1,-1,-1,-1,-1,-1,-1,-1,-1],"split_conditions":[2.0769231E0,1E0,2.25E1,1.13066435E-2,1.75E2,7.105829E-3,5.476828E-2,2E0,1.1338466E0,5.1712755E-2,1E2,3.1708354E-1,4.450897E-2,-5.3933505E-3,3.8257244E-4,4E0,1.4E1,1.408E-1,3.5E0,2.97E-2,1.6689078E0,4E0,1.1338466E0,2.94E0,5.0285716E-2,1.007E1,1.9E1,8.620408E-2,2.5300877E0,2.19E0,1.96E0,3.4103913E-3,-5.2535743E-4,1.8003887E-3,1.2358534E-2,1.9091427E-2,1.5559603E-3,5.86315E-3,-6.6942576E-4,8.889625E-4,-3.1684444E-3,4.9531395E-3,-1.3941596E-3,6.656288E-3,2.6170207E-2,-3.91278E-3,4.0901066E-3,9.914407E-4,8.989271E-3,-7.03593E-4,1.4453107E-3,-4.18996E-3,-4.8993586E-4,-5.2896695E-4,3.5949335E-3],"split_indices":[2,2,0,0,0,0,3,2,1,3,0,3,3,0,0,6,2,3,5,3,7,5,1,4,3,2,2,3,3,6,1,0,0,0,0,0,0,0,0,0,0,0,0,0,0,0,0,0,0,0,0,0,0,0,0],"split_type":[0,0,0,0,0,0,0,0,0,0,0,0,0,0,0,0,0,0,0,0,0,0,0,0,0,0,0,0,0,0,0,0,0,0,0,0,0,0,0,0,0,0,0,0,0,0,0,0,0,0,0,0,0,0,0],"sum_hessian":[6.94E2,1.11E2,5.83E2,2E0,1.09E2,3E0,5.8E2,1.06E2,3E0,9.5E1,4.85E2,7.5E1,3.1E1,2E0,1E0,8.7E1,8E0,2.73E2,2.12E2,4.2E1,3.3E1,8E0,2.3E1,4.6E1,4.1E1,5E0,3E0,4.5E1,2.28E2,1.48E2,6.4E1,8E0,3.4E1,2.8E1,5E0,4E0,4E0,1E1,1.3E1,3.3E1,1.3E1,2.4E1,1.7E1,4E0,1E0,1E0,2E0,3.2E1,1.3E1,1.1E2,1.18E2,2.4E1,1.24E2,3.9E1,2.5E1],"tree_param":{"num_deleted":"0","num_feature":"8","num_nodes":"55","size_leaf_vector":"0"}},{"base_weights":[2.417678E-3,2.2336572E-2,2.182549E-3,3.6251307E-2,1.5169995E-2,3.8412986E-3,1.11457965E-4,-1.4111638E-2,2.2402206E-2,2.6614885E-3,7.6395553E-3,-1.0741357E-2,6.6668243E-4,3.6869855E-3,-1.1520895E-2,1.9865796E-2,2.084408E-3,-7.689993E-4,-1.5650636E-2,4.0462404E-3,-1.4468905E-3,2.648657E-3,1.3087671E-2,-2.3835765E-2,-1.3246685E-3,2.7285086E-2,3.7825643E-3,5.732346E-5,1.8292895E-2,5.4900884E-3,-1.6032219E-2,6.1706933E-3,-2.3201304E-3,-5.6838794E-3,5.4659526E-4,-1.7439892E-3,4.4909837E-3,4.3808118E-2,7.4222772E-3,-1.1829972E-2,-2.7866999E-2,9.562184E-3,-1.0467018E-2,1.7610239E-2,4.5312215E-2,-8.644521E-3,7.969901E-3,1.1049116E-2,-3.7783557E-3,1.7949492E-3,3.0217618E-2,1.4763022E-2,2.5480883E-3,-1.3027515E-2,1.6789247E-3,9.9385776E-5,-1.96376E-2,-4.6479567E-3,4.3627713E-3],"categories":[],"categories_nodes":[],"categories_segments":[],"categories_sizes":[],"default_left":[false,false,false,false,false,false,false,false,false,false,false,false,false,false,false,false,false,false,false,false,false,false,false,false,false,false,false,false,false,false,false,false,false,false,false,false,false,false,false,false,false,false,false,false,false,false,false,false,false,false,false,false,false,false,false,false,false,false,false],"id":15,"left_children":[1,3,5,-1,7,9,11,-1,-1,13,15,17,19,21,23,25,27,29,-1,31,33,35,37,39,41,43,45,47,49,-1,-1,51,53,55,57,-1,-1,-1,-1,-1,-1,-1,-1,-1,-1,-1,-1,-1,-1,-1,-1,-1,-1,-1,-1,-1,-1,-1,-1],"loss_changes":[3.2062903E-3,2.478361E-4,2.363142E-3,0E0,1.7985286E-3,1.6914946E-3,1.8570658E-3,0E0,0E0,4.303867E-3,6.071262E-3,7.2232087E-4,2.0987364E-3,2.63985E-3,2.4797295E-3,3.2379255E-3,2.0688777E-3,6.612213E-4,0E0,1.5426481E-3,1.5319011E-3,2.014819E-3,4.3740165E-3,1.05917454E-4,1.2944646E-3,2.5158264E-3,5.892599E-4,2.4449239E-3,1.322895E-3,0E0,0E0,2.6081444E-3,1.2636355E-3,4.6824394E-3,2.47837E-3,1.3262527E-3,3.262989E-3,3.4956266E-3,4.729698E-3,1.2497198E-3,0E0,2.58064E-4,3.7422788E-4,3.9654784E-4,0E0,5.358388E-4,6.024439E-4,1.1235467E-3,9.3268073E-4,1.3608916E-3,2.734752E-4,2.0352355E-3,2.5812057E-3,2.554321E-4,1.2302729E-3,4.2150826E-3,3.4649237E-3,3.572369E-3,4.635935E-3],"parents":[2147483647,0,0,1,1,2,2,4,4,5,5,6,6,9,9,10,10,11,11,12,12,13,13,14,14,15,15,16,16,17,17,19,19,20,20,21,21,22,22,23,23,24,24,25,25,26,26,27,27,28,28,31,31,32,32,33,33,34,34],"right_children":[2,4,6,-1,8,10,12,-1,-1,14,16,18,20,22,24,26,28,30,-1,32,34,36,38,40,42,44,46,48,50,-1,-1,52,54,56,58,-1,-1,-1,-1,-1,-1,-1,-1,-1,-1,-1,-1,-1,-1,-1,-1,-1,-1,-1,-1,-1,-1,-1,-1],"split_conditions":[2.7580136E-2,1E0,1.007E1,1.0875393E-2,1.2173913E0,2.94E0,1.031746E1,-4.2334916E-3,6.720662E-3,2E0,3.5E0,3.1626096E0,1E2,9.701492E0,2.02E0,1.1733333E-1,1.75E2,6E1,-4.695191E-3,2.02E0,1.4444445E1,9.687016E-1,6.9584765E-2,2.0204082E0,8.125E0,2.5E0,1.1338466E0,5.476828E-2,1.14285715E-1,1.6470266E-3,-4.809666E-3,1.7142858E-1,1.4E1,1.4E1,3E0,-5.2319677E-4,1.3472951E-3,1.3142436E-2,2.2266833E-3,-3.5489919E-3,-8.3601E-3,2.8686554E-3,-3.1401056E-3,5.2830717E-3,1.3593665E-2,-2.5933564E-3,2.3909705E-3,3.314735E-3,-1.1335068E-3,5.384848E-4,9.065285E-3,4.428907E-3,7.6442654E-4,-3.9082547E-3,5.036774E-4,2.9815734E-5,-5.8912802E-3,-1.3943871E-3,1.3088314E-3],"split_indices":[3,2,2,0,2,4,2,0,0,1,4,3,0,2,1,3,0,0,0,1,2,7,3,2,2,1,1,3,3,0,0,3,2,2,4,0,0,0,0,0,0,0,0,0,0,0,0,0,0,0,0,0,0,0,0,0,0,0,0],"split_type":[0,0,0,0,0,0,0,0,0,0,0,0,0,0,0,0,0,0,0,0,0,0,0,0,0,0,0,0,0,0,0,0,0,0,0,0,0,0,0,0,0,0,0,0,0,0,0,0,0,0,0,0,0,0,0,0,0,0,0],"sum_hessian":[6.94E2,7E0,6.87E2,1E0,6E0,3.81E2,3.06E2,1E0,5E0,2.92E2,8.9E1,1.4E1,2.92E2,2.73E2,1.9E1,2.7E1,6.2E1,5E0,9E0,1.12E2,1.8E2,2.47E2,2.6E1,8E0,1.1E1,1.8E1,9E0,5.6E1,6E0,4E0,1E0,8.4E1,2.8E1,5.7E1,1.23E2,7.3E1,1.74E2,3E0,2.3E1,3E0,5E0,5E0,6E0,1.3E1,5E0,2E0,7E0,1.4E1,4.2E1,3E0,3E0,2.4E1,6E1,7E0,2.1E1,4.1E1,1.6E1,5.2E1,7.1E1],"tree_param":{"num_deleted":"0","num_feature":"8","num_nodes":"59","size_leaf_vector":"0"}},{"base_weights":[1.7439101E-3,5.336374E-3,9.3127054E-4,-1.1919526E-4,7.2327214E-3,-6.908271E-3,1.3200829E-3,4.474181E-3,-2.8280453E-3,8.000707E-3,-1.2239128E-2,-1.2853704E-2,1.5946627E-3,2.0830845E-2,9.5155067E-4,-3.0823152E-3,6.1283004E-3,-1.744759E-2,2.4981499E-3,3.981936E-3,1.0754991E-2,-1.5280445E-2,-1.5575886E-3,-1.0488182E-3,-2.1918748E-2,1.5854409E-2,-1.5307486E-2,1.1217277E-2,2.820096E-2,-2.4208168E-2,1.091904E-3,-4.464388E-3,-1.590848E-4,6.3914894E-3,1.7482042E-3,-1.0962486E-3,-2.049861E-2,4.0203333E-4,9.21002E-3,1.2389914E-2,-1.2221289E-3,3.1101465E-2,8.044097E-3,7.4527026E-3,-1.1413515E-2,-2.5724921E-2,-5.731424E-3,1.9064367E-2,-1.7026663E-3,-3.1392932E-2,5.8346987E-4,1.8104166E-2,-1.7043352E-3,3.1283706E-2,7.934988E-3,1.6586134E-3,-3.3844088E-3,-2.7438402E-3,-2.4251342E-2,7.933021E-3,-3.4036636E-3,2.0204067E-2,4.9355826E-3,8.864681E-3,-2.4846636E-3,4.5266844E-2,-1.9862711E-2,-4.312526E-3,1.1323039E-2,1.0766983E-3,8.777529E-3,-1.6061664E-3,-6.990969E-3,2.5434494E-3,2.185986E-2,5.2221417E-3,-2.703468E-3,-1.1110485E-2,8.553982E-3,5.5110645E-3,1.0407999E-3,-6.7313295E-3,6.2403306E-3],"categories":[],"categories_nodes":[],"categories_segments":[],"categories_sizes":[],"default_left":[false,false,false,false,false,false,false,false,false,false,false,false,false,false,false,false,false,false,false,false,false,false,false,false,false,false,false,false,false,false,false,false,false,false,false,false,false,false,false,false,false,false,false,false,false,false,false,false,false,false,false,false,false,false,false,false,false,false,false,false,false,false,false,false,false,false,false,false,false,false,false,false,false,false,false,false,false,false,false,false,false,false,false],"id":16,"left_children":[1,3,5,7,9,11,13,15,17,19,21,23,25,27,29,31,33,35,37,39,41,-1,-1,43,45,47,49,51,53,-1,55,-1,-1,-1,-1,-1,57,59,-1,61,63,65,67,69,-1,-1,71,73,-1,-1,75,-1,77,-1,-1,79,81,-1,-1,-1,-1,-1,-1,-1,-1,-1,-1,-1,-1,-1,-1,-1,-1,-1,-1,-1,-1,-1,-1,-1,-1,-1,-1],"loss_changes":[2.0239986E-3,1.3251055E-3,1.7404467E-3,4.3570733E-4,1.518561E-3,1.3854454E-3,3.8773462E-3,1.813808E-4,1.7566509E-3,9.755078E-4,1.0614318E-4,1.6892E-3,3.1349354E-3,3.9219297E-4,1.9085892E-3,1.1410135E-5,1.5071128E-6,2.76858E-4,2.3546792E-4,1.721613E-3,2.7283025E-3,0E0,0E0,7.89987E-4,4.0706526E-4,4.269624E-4,1.5519955E-3,5.647938E-4,6.413832E-5,0E0,1.3526378E-3,0E0,0E0,0E0,0E0,0E0,2.6660273E-4,4.282505E-4,0E0,7.7402056E-4,3.4039945E-4,5.230683E-3,2.0341468E-3,3.2784737E-5,0E0,0E0,4.3591936E-6,2.215053E-4,0E0,0E0,7.5106E-5,0E0,3.8451265E-4,0E0,0E0,1.1176697E-3,1.9748E-3,0E0,0E0,8.427026E-5,3.7805072E-4,3.3700257E-4,4.0757426E-4,0E0,4.3535352E-4,6.257398E-4,0E0,5.6487177E-3,2.289521E-3,0E0,0E0,0E0,0E0,0E0,0E0,0E0,0E0,0E0,0E0,5.998552E-3,1.9010722E-3,7.2680716E-4,3.3348731E-3],"parents":[2147483647,0,0,1,1,2,2,3,3,4,4,5,5,6,6,7,7,8,8,9,9,10,10,11,11,12,12,13,13,14,14,15,15,16,16,17,17,18,18,19,19,20,20,23,23,24,24,25,25,26,26,27,27,28,28,30,30,36,36,37,37,39,39,40,40,41,41,42,42,43,43,46,46,47,47,50,50,52,52,55,55,56,56],"right_children":[2,4,6,8,10,12,14,16,18,20,22,24,26,28,30,32,34,36,38,40,42,-1,-1,44,46,48,50,52,54,-1,56,-1,-1,-1,-1,-1,58,60,-1,62,64,66,68,70,-1,-1,72,74,-1,-1,76,-1,78,-1,-1,80,82,-1,-1,-1,-1,-1,-1,-1,-1,-1,-1,-1,-1,-1,-1,-1,-1,-1,-1,-1,-1,-1,-1,-1,-1,-1,-1],"split_conditions":[2.2173913E0,1.633924E0,2.75E0,1.7826087E0,1.75E2,5.8695406E-1,3.125E0,1.6428572E0,3.1080467E-1,3.7714288E-2,1.1338466E0,3.5107613E-2,1.0147209E0,1.633924E0,8.078091E-1,1.5925926E0,1.7647059E0,2.5429472E-1,2.1276596E0,1.7328966E0,4.450897E-2,-4.5841336E-3,-4.6727658E-4,2.368421E0,3.52E-1,2.6E0,1.2391253E0,2.9166667E0,1.8728961E0,-7.2624506E-3,1.937E1,-1.3393164E-3,-4.772544E-5,1.9174468E-3,5.2446127E-4,-3.288746E-4,1.8E0,1.96E0,2.7630061E-3,3.06829E-2,1.1666666E0,1E2,8.8E-2,2.2608695E0,-3.4240545E-3,-7.7174767E-3,3E1,2.225E0,-5.1079993E-4,-9.41788E-3,2.25E1,5.4312497E-3,3E0,9.385113E-3,2.3804964E-3,5.476828E-2,2.5E0,-8.231521E-4,-7.275403E-3,2.3799064E-3,-1.0210992E-3,6.0612205E-3,1.4806748E-3,2.6594044E-3,-7.453991E-4,1.3580054E-2,-5.9588137E-3,-1.2937578E-3,3.396912E-3,3.230095E-4,2.6332587E-3,-4.8184991E-4,-2.097291E-3,7.6303486E-4,6.557958E-3,1.5666425E-3,-8.1104046E-4,-3.3331455E-3,2.5661946E-3,1.6533195E-3,3.1223998E-4,-2.0193988E-3,1.8720992E-3],"split_indices":[2,7,2,2,0,3,2,2,3,3,1,3,3,7,7,2,2,3,2,7,3,0,0,2,3,2,3,2,7,0,2,0,0,0,0,0,2,2,0,3,2,0,3,2,0,0,0,2,0,0,0,0,2,0,0,3,1,0,0,0,0,0,0,0,0,0,0,0,0,0,0,0,0,0,0,0,0,0,0,0,0,0,0],"split_type":[0,0,0,0,0,0,0,0,0,0,0,0,0,0,0,0,0,0,0,0,0,0,0,0,0,0,0,0,0,0,0,0,0,0,0,0,0,0,0,0,0,0,0,0,0,0,0,0,0,0,0,0,0,0,0,0,0,0,0,0,0,0,0,0,0,0,0,0,0,0,0,0,0,0,0,0,0,0,0,0,0,0,0],"sum_hessian":[6.94E2,1.27E2,5.67E2,3.3E1,9.4E1,2.6E1,5.41E2,1.2E1,2.1E1,9.1E1,3E0,1.5E1,1.1E1,9E0,5.32E2,2E0,1E1,5E0,1.6E1,3.8E1,5.3E1,2E0,1E0,7E0,8E0,6E0,5E0,5E0,4E0,2E0,5.3E2,1E0,1E0,9E0,1E0,1E0,4E0,1.3E1,3E0,1.4E1,2.4E1,5E0,4.8E1,4E0,3E0,6E0,2E0,5E0,1E0,2E0,3E0,3E0,2E0,3E0,1E0,4.71E2,5.9E1,1E0,3E0,4E0,9E0,6E0,8E0,2E0,2.2E1,4E0,1E0,1E1,3.8E1,1E0,3E0,1E0,1E0,1E0,4E0,1E0,2E0,1E0,1E0,6.4E1,4.07E2,4.4E1,1.5E1],"tree_param":{"num_deleted":"0","num_feature":"8","num_nodes":"83","size_leaf_vector":"0"}},{"base_weights":[1.2340342E-3,2.3169955E-2,1.1372928E-3,6.9718957E-3,2.7783036E-2,1.749928E-2,1.016905E-3,1.5126517E-3,-1.6348909E-3,9.500037E-4,6.986087E-3,-3.5203053E-3,6.4335265E-3,1.6122233E-3,-1.1397563E-2,-6.3693854E-3,1.3294531E-2,-4.186665E-5,-1.4781827E-2,-5.145505E-3,1.2590579E-2,2.1696512E-3,-3.705316E-3,-2.09601E-2,5.1287044E-4,-1.5264467E-2,2.8579518E-2,2.2721553E-2,2.081477E-3,-3.949399E-3,9.729058E-3,-3.1292062E-2,3.0722104E-3,-2.1593522E-2,1.6700894E-2,2.8026113E-2,-2.4893358E-3],"categories":[],"categories_nodes":[],"categories_segments":[],"categories_sizes":[],"default_left":[false,false,false,false,false,false,false,false,false,false,false,false,false,false,false,false,false,false,false,false,false,false,false,false,false,false,false,false,false,false,false,false,false,false,false,false,false],"id":17,"left_children":[1,3,5,-1,-1,-1,7,9,11,13,15,17,19,21,23,25,27,29,31,33,35,-1,-1,-1,-1,-1,-1,-1,-1,-1,-1,-1,-1,-1,-1,-1,-1],"loss_changes":[1.4485166E-3,3.046845E-5,1.3472654E-3,0E0,0E0,0E0,9.082455E-4,1.7826211E-3,1.6807897E-3,4.3357266E-3,4.6342993E-3,3.4857346E-3,1.5619317E-3,1.4960396E-3,3.0858868E-3,6.0319714E-3,3.8638175E-3,2.672858E-3,6.286397E-3,3.2352707E-3,3.3284975E-3,2.6502335E-3,3.5889517E-3,2.7884902E-3,3.078722E-4,2.5391928E-3,0E0,1.1762666E-2,2.1816737E-3,3.2909918E-3,2.6564703E-3,2.7962439E-3,4.797382E-3,1.5634461E-4,0E0,5.2925386E-4,6.324974E-4],"parents":[2147483647,0,0,1,1,2,2,6,6,7,7,8,8,9,9,10,10,11,11,12,12,13,13,14,14,15,15,16,16,17,17,18,18,19,19,20,20],"right_children":[2,4,6,-1,-1,-1,8,10,12,14,16,18,20,22,24,26,28,30,32,34,36,-1,-1,-1,-1,-1,-1,-1,-1,-1,-1,-1,-1,-1,-1,-1,-1],"split_conditions":[1E0,8.5714287E-1,2.25E1,2.091569E-3,8.334911E-3,5.249784E-3,1.9E1,1.4444445E1,6E0,1.4E1,6.788571E-2,5E0,6.9584765E-2,5.96E0,4.02E0,2.51E0,1.3577142E-1,1.5E2,1.9014072E1,2.94E0,3.5E0,6.508954E-4,-1.1115948E-3,-6.28803E-3,1.5386114E-4,-4.5793406E-3,8.573856E-3,6.8164663E-3,6.244432E-4,-1.1848197E-3,2.9187175E-3,-9.387619E-3,9.2166313E-4,-6.478057E-3,5.010268E-3,8.407834E-3,-7.468008E-4],"split_indices":[2,2,0,0,0,0,2,2,6,2,3,6,3,6,6,1,3,0,2,4,4,0,0,0,0,0,0,0,0,0,0,0,0,0,0,0,0],"split_type":[0,0,0,0,0,0,0,0,0,0,0,0,0,0,0,0,0,0,0,0,0,0,0,0,0,0,0,0,0,0,0,0,0,0,0,0,0],"sum_hessian":[6.94E2,2E0,6.92E2,1E0,1E0,4E0,6.88E2,5.8E2,1.08E2,5.27E2,5.3E1,8.8E1,2E1,5.01E2,2.6E1,1.7E1,3.6E1,6.8E1,2E1,7E0,1.3E1,4.54E2,4.7E1,1.4E1,1.2E1,1.4E1,3E0,1.9E1,1.7E1,4.9E1,1.9E1,1E1,1E1,4E0,3E0,6E0,7E0],"tree_param":{"num_deleted":"0","num_feature":"8","num_nodes":"37","size_leaf_vector":"0"}},{"base_weights":[8.925779E-4,3.517717E-3,2.5345027E-4,1.8677621E-3,2.6592884E-2,-1.2166875E-2,5.2447116E-4,1.2865767E-2,1.1251852E-3,3.7842054E-2,3.0709058E-3,-6.286409E-3,-2.2356205E-2,1.2629555E-3,-2.098126E-3,2.3615599E-2,7.95642E-3,2.5713816E-6,5.2269446E-3,1.6217697E-2,7.2981924E-2,-1.0277599E-2,1.0946274E-2,-1.5514344E-3,-8.395324E-3,-6.4938166E-3,-3.4971684E-2,3.405006E-4,7.8007393E-3,-4.243612E-3,9.643094E-3,-1.5350938E-2,1.4399469E-2,1.8888888E-3,-5.7350844E-3,1.2337153E-2,-2.8322751E-3,2.3922145E-2,-7.5027347E-3,-7.996738E-3,3.2625794E-3,1.6381134E-3,-4.003704E-3,1.9948345E-2,4.2565606E-4,-1.0556362E-2,-2.3183692E-4,1.951221E-2,6.917173E-4,7.6616765E-3,2.4044216E-2,5.651155E-4,2.4582699E-2,-2.3063377E-3,-1.8303055E-2,1.4093707E-2,1.1985501E-3,1.486995E-3,-1.7725507E-2,1.4588127E-2,6.798841E-4,-2.2178182E-2,-2.6250386E-3,1.2667894E-2,2.2163687E-2,6.0538785E-3,-1.1892798E-2,-1.9385522E-2,1.3118088E-3,1.50967585E-2,-4.4351406E-3,1.3521723E-2,3.371805E-2,-4.3829083E-3,1.0668039E-2],"categories":[],"categories_nodes":[],"categories_segments":[],"categories_sizes":[],"default_left":[false,false,false,false,false,false,false,false,false,false,false,false,false,false,false,false,false,false,false,false,false,false,false,false,false,false,false,false,false,false,false,false,false,false,false,false,false,false,false,false,false,false,false,false,false,false,false,false,false,false,false,false,false,false,false,false,false,false,false,false,false,false,false,false,false,false,false,false,false,false,false,false,false,false,false],"id":18,"left_children":[1,3,5,7,9,11,13,15,17,19,21,23,25,27,29,-1,31,33,35,-1,-1,-1,37,39,-1,-1,-1,41,43,45,47,-1,49,51,53,55,57,-1,-1,-1,-1,59,61,63,65,67,69,71,73,-1,-1,-1,-1,-1,-1,-1,-1,-1,-1,-1,-1,-1,-1,-1,-1,-1,-1,-1,-1,-1,-1,-1,-1,-1,-1],"loss_changes":[1.1651787E-3,5.1282565E-3,1.8914348E-3,1.0308822E-3,2.2652159E-3,5.784759E-4,1.0659241E-3,2.3430155E-4,5.5715424E-4,3.3756644E-3,5.32999E-4,7.684616E-5,5.7334686E-4,2.5845615E-3,3.0889867E-3,0E0,1.2722386E-3,1.0498449E-3,1.5248132E-3,0E0,0E0,0E0,8.976575E-4,1.5020111E-4,0E0,0E0,0E0,2.1317438E-3,4.7397576E-3,2.6060618E-3,1.6650043E-3,0E0,2.0568678E-4,2.1791344E-3,9.920042E-4,2.570257E-4,8.626204E-4,0E0,0E0,0E0,0E0,3.6011245E-3,2.1216993E-3,4.180614E-5,2.4292516E-3,4.2168694E-3,4.1905236E-3,3.0997302E-4,6.036441E-4,5.7246274E-5,0E0,7.699772E-4,4.2947684E-4,9.3899196E-4,1.680545E-3,5.88245E-4,4.01419E-5,1.0350549E-3,1.6395005E-3,5.4937913E-3,1.2328166E-3,0E0,1.6755194E-3,8.619152E-4,8.704327E-4,1.3074991E-3,1.0138091E-3,1.9978313E-3,1.4677529E-3,1.3121164E-3,9.593663E-4,5.268144E-4,0E0,1.9732476E-4,1.317808E-4],"parents":[2147483647,0,0,1,1,2,2,3,3,4,4,5,5,6,6,7,7,8,8,9,9,10,10,11,11,12,12,13,13,14,14,16,16,17,17,18,18,22,22,23,23,27,27,28,28,29,29,30,30,32,32,33,33,34,34,35,35,36,36,41,41,42,42,43,43,44,44,45,45,46,46,47,47,48,48],"right_children":[2,4,6,8,10,12,14,16,18,20,22,24,26,28,30,-1,32,34,36,-1,-1,-1,38,40,-1,-1,-1,42,44,46,48,-1,50,52,54,56,58,-1,-1,-1,-1,60,62,64,66,68,70,72,74,-1,-1,-1,-1,-1,-1,-1,-1,-1,-1,-1,-1,-1,-1,-1,-1,-1,-1,-1,-1,-1,-1,-1,-1,-1,-1],"split_conditions":[5.476828E-2,5.3424627E-2,5.892857E-2,2.7580136E-2,1.4E1,1.4444445E1,3.5E0,1E0,2.02E0,1.007E1,1.9E1,2.5E0,1E2,3E0,1.75E2,7.08468E-3,1.2173913E0,3.04E0,2.51E0,4.865309E-3,2.1894578E-2,-3.0832798E-3,1.9014072E1,3E1,-2.5185975E-3,-1.9481451E-3,-1.0491505E-2,2.15E0,1.25E2,9.158507E-2,2.02E0,-4.6052816E-3,2.6712313E-2,1.9014072E1,1.9014072E1,1.9014072E1,1.9E1,7.1766437E-3,-2.2508204E-3,-2.3990215E-3,9.787739E-4,9.504E-2,6.04E0,8.166666E-2,1.9E1,3.0009642E0,1.1281686E-1,1.9E1,1.9E1,2.298503E-3,7.213265E-3,1.6953464E-4,7.37481E-3,-6.919013E-4,-5.490917E-3,4.2281123E-3,3.5956505E-4,4.4609854E-4,-5.317652E-3,4.3764384E-3,2.0396525E-4,-6.653455E-3,-7.8751164E-4,3.8003684E-3,6.6491063E-3,1.8161637E-3,-3.5678397E-3,-5.815657E-3,3.9354266E-4,4.5290277E-3,-1.3305423E-3,4.056517E-3,1.0115415E-2,-1.3148725E-3,3.200412E-3],"split_indices":[3,3,3,3,2,2,4,2,1,2,2,1,0,4,0,0,2,5,1,0,0,0,2,0,0,0,0,4,0,3,1,0,3,2,2,2,2,0,0,0,0,3,2,3,2,5,3,2,2,0,0,0,0,0,0,0,0,0,0,0,0,0,0,0,0,0,0,0,0,0,0,0,0,0,0],"split_type":[0,0,0,0,0,0,0,0,0,0,0,0,0,0,0,0,0,0,0,0,0,0,0,0,0,0,0,0,0,0,0,0,0,0,0,0,0,0,0,0,0,0,0,0,0,0,0,0,0,0,0,0,0,0,0,0,0,0,0,0,0,0,0,0,0,0,0,0,0,0,0,0,0,0,0],"sum_hessian":[6.94E2,1.35E2,5.59E2,1.27E2,8E0,1.1E1,5.48E2,7E0,1.2E2,5E0,3E0,8E0,3E0,4.28E2,1.2E2,1E0,6E0,9.5E1,2.5E1,4E0,1E0,1E0,2E0,3E0,5E0,2E0,1E0,3.76E2,5.2E1,1.02E2,1.8E1,1E0,5E0,7.2E1,2.3E1,1.3E1,1.2E1,1E0,1E0,1E0,2E0,2.9E2,8.6E1,1.9E1,3.3E1,3.9E1,6.3E1,8E0,1E1,4E0,1E0,6.9E1,3E0,1.9E1,4E0,1.1E1,2E0,1E1,2E0,1.9E1,2.71E2,5E0,8.1E1,6E0,1.3E1,2.3E1,1E1,2.2E1,1.7E1,1.3E1,5E1,7E0,1E0,7E0,3E0],"tree_param":{"num_deleted":"0","num_feature":"8","num_nodes":"75","size_leaf_vector":"0"}},{"base_weights":[6.895041E-4,1.0046268E-2,5.52103E-4,4.7899485E-3,1.6733259E-2,1.4950951E-3,-6.954038E-4,2.0073235E-2,-1.1028051E-3,6.064574E-3,2.4369657E-2,3.723603E-3,3.3185811E-4,-6.1819595E-3,1.4358091E-3,-1.3048291E-2,3.8959503E-3,5.704595E-3,-5.5936337E-3,-5.33603E-4,1.1900985E-2,-8.056992E-3,5.5799045E-4,9.587575E-3,2.5743945E-4,-9.4654365E-4,1.0787153E-2,-3.100452E-3,-1.728443E-2,5.2031744E-3,-1.4052377E-3,2.0800063E-2,6.9078803E-4,2.060622E-3,-1.0156147E-2,8.5453745E-3,-9.266366E-3,1.6200609E-3,2.2970343E-2,-2.4508755E-4,2.3434952E-2,1.5755057E-2,-1.992464E-3,1.5003039E-2,-3.7038822E-3,-2.4257228E-5,-1.0786896E-2,7.943423E-3,1.1126101E-3,-5.1762285E-3,4.7685154E-4,2.457284E-2,1.2112719E-2,1.2607594E-2,-4.515099E-3,-3.1898816E-3,3.4297109E-3,-6.4564025E-4,-1.2302952E-2,-6.1647096E-3,1.249925E-2,-1.4045115E-2,4.9728355E-3,-1.2342135E-2,4.136719E-3,1.3136303E-2,-6.133852E-4,2.6523748E-2,7.0842803E-3],"categories":[],"categories_nodes":[],"categories_segments":[],"categories_sizes":[],"default_left":[false,false,false,false,false,false,false,false,false,false,false,false,false,false,false,false,false,false,false,false,false,false,false,false,false,false,false,false,false,false,false,false,false,false,false,false,false,false,false,false,false,false,false,false,false,false,false,false,false,false,false,false,false,false,false,false,false,false,false,false,false,false,false,false,false,false,false,false,false],"id":19,"left_children":[1,3,5,7,9,11,13,-1,15,-1,-1,17,19,21,23,-1,-1,25,27,29,31,33,35,37,39,41,43,45,-1,47,49,51,53,55,57,59,61,63,-1,65,67,-1,-1,-1,-1,-1,-1,-1,-1,-1,-1,-1,-1,-1,-1,-1,-1,-1,-1,-1,-1,-1,-1,-1,-1,-1,-1,-1,-1],"loss_changes":[8.879658E-4,2.7133815E-4,8.080426E-4,6.525614E-4,1.7808971E-4,1.0123468E-3,3.4700097E-3,0E0,4.0911086E-4,0E0,0E0,2.5051967E-3,2.5896088E-3,1.0534185E-3,2.0531714E-3,0E0,0E0,3.7625432E-3,6.4594526E-4,1.2124019E-3,1.7813195E-3,1.4014267E-3,1.5701319E-3,2.8417264E-3,2.1954407E-3,8.873501E-4,3.9044E-3,4.962833E-4,0E0,3.498554E-4,1.4929099E-3,3.0110124E-5,6.152624E-4,9.720125E-5,1.0945858E-3,7.168345E-4,6.822542E-4,6.835413E-4,0E0,9.197995E-4,1.4113961E-5,1.11141184E-4,7.6727837E-4,4.6756025E-3,1.2569753E-3,6.328345E-4,1.3371237E-4,1.0398452E-3,2.1930032E-3,2.24795E-3,1.866022E-3,0E0,4.807854E-5,0E0,2.8993105E-5,5.760332E-6,5.056172E-6,9.0603833E-4,1.3298457E-3,0E0,2.0191423E-5,4.0590554E-4,0E0,0E0,2.7351317E-4,1.0130013E-4,1.284224E-3,0E0,0E0],"parents":[2147483647,0,0,1,1,2,2,3,3,4,4,5,5,6,6,8,8,11,11,12,12,13,13,14,14,17,17,18,18,19,19,20,20,21,21,22,22,23,23,24,24,25,25,26,26,27,27,29,29,30,30,31,31,32,32,33,33,34,34,35,35,36,36,37,37,39,39,40,40],"right_children":[2,4,6,8,10,12,14,-1,16,-1,-1,18,20,22,24,-1,-1,26,28,30,32,34,36,38,40,42,44,46,-1,48,50,52,54,56,58,60,62,64,-1,66,68,-1,-1,-1,-1,-1,-1,-1,-1,-1,-1,-1,-1,-1,-1,-1,-1,-1,-1,-1,-1,-1,-1,-1,-1,-1,-1,-1,-1],"split_conditions":[1.2857143E0,1.7328966E0,2.0625E-1,1E0,1.1666666E0,1.1338466E0,5.8695406E-1,6.021971E-3,2.7580136E-2,1.8193722E-3,7.3108976E-3,1.9E1,1.5474974E-1,1.4444445E1,1.0962455E0,-3.9144875E-3,1.1687852E-3,4.4E-2,4E0,4.481772E-2,3.0009642E0,1.7826087E0,1.9014072E1,1.6689078E0,1.3E1,2.7580136E-2,1.2068571E-1,1.3916953E-1,-5.1853294E-3,4E0,2.94E0,1.4E1,8.125E0,1.6428572E0,2.3305652E-1,2.01E0,3.4481633E-1,1.4814814E0,6.891103E-3,2.25E1,6E1,4.7265175E-3,-5.9773924E-4,4.5009116E-3,-1.1111647E-3,-7.2771686E-6,-3.2360689E-3,2.3830272E-3,3.3378304E-4,-1.5528686E-3,1.4305547E-4,7.371852E-3,3.6338158E-3,3.7822784E-3,-1.3545298E-3,-9.569645E-4,1.0289133E-3,-1.9369209E-4,-3.6908856E-3,-1.8494129E-3,3.749775E-3,-4.2135348E-3,1.4918507E-3,-3.7026408E-3,1.2410157E-3,3.940891E-3,-1.8401556E-4,7.957125E-3,2.1252842E-3],"split_indices":[2,7,3,2,2,1,3,0,3,0,0,2,3,2,3,0,0,3,5,3,5,2,2,7,2,3,3,3,0,5,4,2,2,2,3,5,3,2,0,0,0,0,0,0,0,0,0,0,0,0,0,0,0,0,0,0,0,0,0,0,0,0,0,0,0,0,0,0,0],"split_type":[0,0,0,0,0,0,0,0,0,0,0,0,0,0,0,0,0,0,0,0,0,0,0,0,0,0,0,0,0,0,0,0,0,0,0,0,0,0,0,0,0,0,0,0,0,0,0,0,0,0,0,0,0,0,0,0,0,0,0,0,0,0,0,0,0,0,0,0,0],"sum_hessian":[6.94E2,9E0,6.85E2,6E0,3E0,3.9E2,2.95E2,1E0,5E0,2E0,1E0,1.33E2,2.57E2,8.2E1,2.13E2,1E0,4E0,1.1E2,2.3E1,2.4E2,1.7E1,6.4E1,1.8E1,2.6E1,1.87E2,4.8E1,6.2E1,2E1,3E0,3.1E1,2.09E2,9E0,8E0,1.1E1,5.3E1,1E1,8E0,1.7E1,9E0,1.84E2,3E0,2E0,4.6E1,4.8E1,1.4E1,1.5E1,5E0,1.8E1,1.3E1,6.9E1,1.4E2,5E0,4E0,2E0,6E0,2E0,9E0,1E1,4.3E1,2E0,8E0,6E0,2E0,2E0,1.5E1,4E0,1.8E2,2E0,1E0],"tree_param":{"num_deleted":"0","num_feature":"8","num_nodes":"69","size_leaf_vector":"0"}},{"base_weights":[5.4002105E-4,6.9422217E-4,-5.65072E-3,2.2530396E-4,3.314335E-3,-7.002335E-3,7.987559E-3,6.0624164E-4,-5.8763255E-3,1.192775E-2,-5.5988214E-4,-7.594347E-3,-1.9055009E-3,4.8726096E-4,1.3334906E-2,-2.1274766E-2,-2.4878094E-3,2.993445E-2,6.621033E-3,1.0454596E-3,-8.673713E-3,-9.752214E-4,-8.028493E-3,1.5764236E-3,-4.434675E-3,2.5638775E-3,-1.5751913E-4,-1.6617239E-2,2.4977252E-2,1.1085868E-4,-7.436365E-3,7.2758255E-4,2.6144603E-2,-2.726046E-3,7.3951664E-3,-1.7943192E-2,-1.7960742E-3,1.9557136E-3,1.14418715E-2,7.3749997E-4,-4.7092703E-3,-5.905175E-3,5.5699022E-3,-9.600772E-3,6.0216486E-3,-1.546216E-2,2.3101778E-3,5.594015E-4,-1.2309784E-2,1.11810565E-2,-1.1818564E-2],"categories":[],"categories_nodes":[],"categories_segments":[],"categories_sizes":[],"default_left":[false,false,false,false,false,false,false,false,false,false,false,false,false,false,false,false,false,false,false,false,false,false,false,false,false,false,false,false,false,false,false,false,false,false,false,false,false,false,false,false,false,false,false,false,false,false,false,false,false,false,false],"id":20,"left_children":[1,3,5,7,9,11,-1,13,15,17,19,21,23,25,27,-1,29,-1,31,33,35,-1,-1,-1,-1,37,39,-1,-1,41,43,45,-1,47,-1,-1,49,-1,-1,-1,-1,-1,-1,-1,-1,-1,-1,-1,-1,-1,-1],"loss_changes":[6.673833E-4,8.3348533E-4,3.693045E-4,1.344707E-3,3.443813E-3,3.3807126E-5,0E0,8.173714E-4,1.7211195E-3,2.8596092E-3,9.46902E-4,3.240182E-5,3.3410106E-5,7.234428E-4,2.158619E-3,0E0,3.7375436E-4,0E0,2.9725686E-3,1.4809849E-3,7.327982E-4,0E0,0E0,0E0,0E0,6.687302E-4,1.6859956E-3,0E0,0E0,6.897271E-4,3.4909864E-4,5.737783E-4,0E0,1.2348738E-3,0E0,0E0,1.1726493E-3,1.3198345E-3,9.824284E-4,1.1005116E-3,2.8053909E-3,3.7183324E-4,0E0,0E0,0E0,0E0,5.505108E-4,5.8306456E-3,0E0,0E0,0E0],"parents":[2147483647,0,0,1,1,2,2,3,3,4,4,5,5,7,7,8,8,9,9,10,10,11,11,12,12,13,13,14,14,16,16,18,18,19,19,20,20,25,25,26,26,29,29,30,30,31,31,33,33,36,36],"right_children":[2,4,6,8,10,12,-1,14,16,18,20,22,24,26,28,-1,30,-1,32,34,36,-1,-1,-1,-1,38,40,-1,-1,42,44,46,-1,48,-1,-1,50,-1,-1,-1,-1,-1,-1,-1,-1,-1,-1,-1,-1,-1,-1],"split_conditions":[1.2531844E1,2.5300877E0,1.1666667E1,2.016461E0,3.1626096E0,1.1206897E1,2.3962678E-3,1.6651831E0,6E0,7.2580647E0,1.04E1,4.7272725E0,1.1403509E1,2.2173913E0,8.078091E-1,-6.38243E-3,9.352518E0,8.980335E-3,1.023622E1,1.031746E1,1.0655738E1,-2.9256643E-4,-2.408548E-3,4.7292712E-4,-1.3304026E-3,2.02E0,2.3305652E-1,-4.985172E-3,7.493176E-3,9.285714E0,1.1818182E1,7.303371E0,7.843382E-3,9.848485E0,2.21855E-3,-5.382958E-3,1.1206897E1,5.8671413E-4,3.4325616E-3,2.2125E-4,-1.4127812E-3,-1.7715526E-3,1.6709707E-3,-2.8802315E-3,1.8064947E-3,-4.638648E-3,6.9305336E-4,1.6782046E-4,-3.6929355E-3,3.354317E-3,-3.5455693E-3],"split_indices":[3,3,2,3,3,2,0,3,2,2,2,2,2,2,7,0,2,0,2,2,2,0,0,0,0,1,3,0,0,2,2,2,0,2,0,0,2,0,0,0,0,0,0,0,0,0,0,0,0,0,0],"split_type":[0,0,0,0,0,0,0,0,0,0,0,0,0,0,0,0,0,0,0,0,0,0,0,0,0,0,0,0,0,0,0,0,0,0,0,0,0,0,0,0,0,0,0,0,0,0,0,0,0,0,0],"sum_hessian":[6.94E2,6.78E2,1.6E1,5.76E2,1.02E2,1.5E1,1E0,5.43E2,3.3E1,3.1E1,7.1E1,1.3E1,2E0,5.39E2,4E0,5E0,2.8E1,6E0,2.5E1,6E1,1.1E1,1E0,1.2E1,1E0,1E0,1.27E2,4.12E2,1E0,3E0,1.9E1,9E0,2E1,5E0,3.8E1,2.2E1,4E0,7E0,1.2E2,7E0,3.45E2,6.7E1,9E0,1E1,8E0,1E0,1E0,1.9E1,2.9E1,9E0,3E0,4E0],"tree_param":{"num_deleted":"0","num_feature":"8","num_nodes":"51","size_leaf_vector":"0"}},{"base_weights":[3.8176705E-4,1.4271458E-2,3.2108763E-4,1.3460125E-3,-3.0507552E-4,4.7997586E-4,1.9420614E-2,3.870559E-4,-5.835771E-3,2.5199528E-4,1.4551774E-2,-5.256834E-3,8.116312E-4,-1.2477053E-2,-1.0543425E-3,-9.009558E-4,1.9503885E-3,6.2066116E-3,1.979363E-2,-8.723919E-4,-8.706228E-3,3.3815273E-3,-7.691589E-5,-1.7668683E-2,6.631571E-3,-4.5177937E-3,7.1441927E-3,3.9640223E-3,-1.961553E-3,7.7362913E-3,-4.8749315E-4,-2.692014E-3,1.0481536E-2,-5.9571387E-3,-1.1837006E-2,8.869398E-3,-2.2991565E-3,-3.8982332E-3,9.557476E-4,-1.5348569E-3,-2.1273809E-2,-7.231012E-3,1.190497E-2,-6.6410303E-3,6.773983E-4,2.5450885E-3,1.0314459E-2],"categories":[],"categories_nodes":[],"categories_segments":[],"categories_sizes":[],"default_left":[false,false,false,false,false,false,false,false,false,false,false,false,false,false,false,false,false,false,false,false,false,false,false,false,false,false,false,false,false,false,false,false,false,false,false,false,false,false,false,false,false,false,false,false,false,false,false],"id":21,"left_children":[1,-1,3,5,7,9,-1,11,13,15,17,19,21,23,25,27,29,-1,-1,31,33,35,37,39,41,43,45,-1,-1,-1,-1,-1,-1,-1,-1,-1,-1,-1,-1,-1,-1,-1,-1,-1,-1,-1,-1],"loss_changes":[5.8117637E-4,0E0,4.4515735E-4,4.1074874E-3,1.652113E-3,8.0477336E-4,0E0,9.2442904E-4,1.5110761E-3,4.8934016E-4,5.2125135E-5,4.007438E-4,8.177437E-4,2.1012689E-3,8.557376E-4,7.7658315E-4,1.4284113E-3,0E0,0E0,2.967946E-4,5.8587175E-5,2.8884788E-3,1.0573437E-3,8.9797936E-4,4.515996E-4,2.361417E-4,1.0497222E-4,1.1309934E-3,6.127447E-4,1.9092775E-3,5.9792545E-4,2.267576E-4,0E0,1.4179113E-4,1.14832714E-4,2.5194306E-3,4.169458E-3,1.965889E-3,1.6885229E-3,1.09122E-3,5.4973457E-4,0E0,7.3049974E-5,2.5230926E-5,2.309312E-5,2.6368213E-4,0E0],"parents":[2147483647,0,0,2,2,3,3,4,4,5,5,7,7,8,8,9,9,10,10,11,11,12,12,13,13,14,14,15,15,16,16,19,19,20,20,21,21,22,22,23,23,24,24,25,25,26,26],"right_children":[2,-1,4,6,8,10,-1,12,14,16,18,20,22,24,26,28,30,-1,-1,32,34,36,38,40,42,44,46,-1,-1,-1,-1,-1,-1,-1,-1,-1,-1,-1,-1,-1,-1,-1,-1,-1,-1,-1,-1],"split_conditions":[1E0,4.2814375E-3,1.8728961E0,1.7328966E0,2.376E-1,1.3E1,5.8261845E-3,3E1,3.4481633E-1,2.5300877E0,1.4444445E1,1.8181819E0,1.1338466E0,6E0,1E2,9.504E-2,3.1626096E0,1.8619836E-3,5.938089E-3,1.7777778E0,2.195122E0,1.4E1,2.19E0,2.001856E0,1.007E1,1.1206897E1,1.4E1,1.1892067E-3,-5.8846595E-4,2.3208875E-3,-1.4624796E-4,-8.076042E-4,3.144461E-3,-1.7871417E-3,-3.5511018E-3,2.6608196E-3,-6.89747E-4,-1.16947E-3,2.867243E-4,-4.604571E-4,-6.3821427E-3,-2.1693036E-3,3.571491E-3,-1.9923092E-3,2.0321949E-4,7.635266E-4,3.0943379E-3],"split_indices":[2,0,7,7,3,2,0,0,3,3,2,2,1,6,0,3,3,0,0,2,2,2,6,6,2,2,2,0,0,0,0,0,0,0,0,0,0,0,0,0,0,0,0,0,0,0,0],"split_type":[0,0,0,0,0,0,0,0,0,0,0,0,0,0,0,0,0,0,0,0,0,0,0,0,0,0,0,0,0,0,0,0,0,0,0,0,0,0,0,0,0,0,0,0,0,0,0],"sum_hessian":[6.94E2,2E0,6.92E2,2.62E2,4.3E2,2.51E2,1.1E1,3.83E2,4.7E1,2.48E2,3E0,2.6E1,3.57E2,1.9E1,2.8E1,1.48E2,1E2,2E0,1E0,1.2E1,1.4E1,9.1E1,2.66E2,1.5E1,4E0,2E1,8E0,2.6E1,1.22E2,2.9E1,7.1E1,1.1E1,1E0,9E0,5E0,4.6E1,4.5E1,5.6E1,2.1E2,3E0,1.2E1,1E0,3E0,1.4E1,6E0,4E0,4E0],"tree_param":{"num_deleted":"0","num_feature":"8","num_nodes":"47","size_leaf_vector":"0"}},{"base_weights":[2.8939307E-4,9.40342E-3,2.2302617E-4,4.472792E-3,1.4562964E-2,5.477587E-3,1.0627367E-4,1.4628172E-2,3.7791047E-3,7.4668378E-3,1.8227724E-5,-1.19790435E-2,5.912735E-3,1.1230797E-2,2.962303E-3,-5.3625703E-3,9.960405E-5,-1.6731024E-4,7.7534793E-3,3.3025742E-3,1.7507732E-2,-4.519735E-5,-1.332733E-2,1.5365864E-3,-2.0587133E-4,1.7186344E-2,4.7957897E-3,-8.1528425E-3,8.073747E-3,-1.8520534E-2,-5.422751E-3,2.4330096E-4,1.8965527E-2,-9.956472E-3,1.3218528E-5],"categories":[],"categories_nodes":[],"categories_segments":[],"categories_sizes":[],"default_left":[false,false,false,false,false,false,false,false,false,false,false,false,false,false,false,false,false,false,false,false,false,false,false,false,false,false,false,false,false,false,false,false,false,false,false],"id":22,"left_children":[1,3,5,-1,-1,7,9,-1,11,13,15,-1,17,19,-1,21,23,-1,25,-1,-1,27,29,31,33,-1,-1,-1,-1,-1,-1,-1,-1,-1,-1],"loss_changes":[4.182872E-4,6.206185E-5,4.2333474E-4,0E0,0E0,1.7785022E-4,4.3860584E-4,0E0,5.4153777E-4,1.0237002E-4,2.9390675E-4,0E0,1.4679076E-4,1.4123914E-4,0E0,4.2291367E-4,2.9047072E-4,0E0,1.965728E-4,0E0,0E0,5.266026E-4,6.376812E-5,2.6100948E-3,1.1665282E-3,0E0,1.1663957E-4,4.1764637E-5,6.499997E-5,0E0,0E0,4.4686222E-4,1.3042062E-3,4.4463598E-4,5.920421E-4],"parents":[2147483647,0,0,1,1,2,2,5,5,6,6,8,8,9,9,10,10,12,12,13,13,15,15,16,16,18,18,21,21,22,22,23,23,24,24],"right_children":[2,4,6,-1,-1,8,10,-1,12,14,16,-1,18,20,-1,22,24,-1,26,-1,-1,28,30,32,34,-1,-1,-1,-1,-1,-1,-1,-1,-1,-1],"split_conditions":[2.25E1,3.4E0,3.033815E-2,1.3418377E-3,4.3688896E-3,1E0,1.2857143E0,4.3884516E-3,1.2173913E0,4.7091615E-1,1.625E0,-3.5937133E-3,1.5151515E0,1.1666666E0,8.88691E-4,1.5E0,5.476828E-2,-5.0193074E-5,1.7328966E0,9.907723E-4,5.25232E-3,1.3333334E0,1.5151515E0,5.39E-2,5.892857E-2,5.1559033E-3,1.4387369E-3,-2.4458528E-3,2.4221241E-3,-5.5561606E-3,-1.6268253E-3,7.299029E-5,5.689658E-3,-2.9869417E-3,3.9655583E-6],"split_indices":[0,2,3,0,0,2,2,0,2,3,2,0,2,2,0,2,3,0,7,0,0,2,2,3,3,0,0,0,0,0,0,0,0,0,0],"split_type":[0,0,0,0,0,0,0,0,0,0,0,0,0,0,0,0,0,0,0,0,0,0,0,0,0,0,0,0,0,0,0,0,0,0,0],"sum_hessian":[6.94E2,4E0,6.9E2,3E0,1E0,1.4E1,6.76E2,1E0,1.3E1,7E0,6.69E2,1E0,1.2E1,3E0,4E0,9E0,6.6E2,3E0,9E0,2E0,1E0,6E0,3E0,1.15E2,5.45E2,1E0,8E0,3E0,3E0,1E0,2E0,1.08E2,7E0,1.1E1,5.34E2],"tree_param":{"num_deleted":"0","num_feature":"8","num_nodes":"35","size_leaf_vector":"0"}},{"base_weights":[2.2523661E-4,6.1173376E-4,-1.1479215E-3,-2.9755622E-5,5.874626E-3,-3.828694E-3,2.9579762E-3,1.0221731E-3,-2.4087504E-3,1.3342794E-2,3.723732E-4,-2.4036134E-3,-1.8669724E-2,-1.3840069E-2,4.7049457E-3,4.3031698E-4,6.850484E-3,-1.1500988E-2,-1.1506516E-3,2.4136603E-2,8.663875E-3,8.230805E-3,-4.0855394E-3,-4.1557962E-4,-8.168095E-3,-4.668343E-3,-3.150402E-2,